/*
 * Copyright (c) 2025 EdgeImpulse Inc.
 *
 * Generated by Edge Impulse and licensed under the applicable Edge Impulse
 * Terms of Service. Community and Professional Terms of Service
 * (https://edgeimpulse.com/legal/terms-of-service) or Enterprise Terms of
 * Service (https://edgeimpulse.com/legal/enterprise-terms-of-service),
 * according to your product plan subscription (the “License”).
 *
 * This software, documentation and other associated files (collectively referred
 * to as the “Software”) is a single SDK variation generated by the Edge Impulse
 * platform and requires an active paid Edge Impulse subscription to use this
 * Software for any purpose.
 *
 * You may NOT use this Software unless you have an active Edge Impulse subscription
 * that meets the eligibility requirements for the applicable License, subject to
 * your full and continued compliance with the terms and conditions of the License,
 * including without limitation any usage restrictions under the applicable License.
 *
 * If you do not have an active Edge Impulse product plan subscription, or if use
 * of this Software exceeds the usage limitations of your Edge Impulse product plan
 * subscription, you are not permitted to use this Software and must immediately
 * delete and erase all copies of this Software within your control or possession.
 * Edge Impulse reserves all rights and remedies available to enforce its rights.
 *
 * Unless required by applicable law or agreed to in writing, the Software is
 * distributed on an "AS IS" BASIS, WITHOUT WARRANTIES OR CONDITIONS OF ANY KIND,
 * either express or implied. See the License for the specific language governing
 * permissions, disclaimers and limitations under the License.
 */
// Generated on: 18.12.2025 11:26:33

#include <stdio.h>
#include <stdlib.h>
#include "edge-impulse-sdk/tensorflow/lite/c/builtin_op_data.h"
#include "edge-impulse-sdk/tensorflow/lite/c/common.h"
#include "edge-impulse-sdk/tensorflow/lite/micro/micro_mutable_op_resolver.h"
#include "edge-impulse-sdk/porting/ei_classifier_porting.h"

#if EI_CLASSIFIER_PRINT_STATE
#if defined(__cplusplus) && EI_C_LINKAGE == 1
extern "C" {
    extern void ei_printf(const char *format, ...);
}
#else
extern void ei_printf(const char *format, ...);
#endif
#endif

#define STRINGIZE(x) #x
#define STRINGIZE_VALUE_OF(x) STRINGIZE(x)

#if defined (__GNUC__)  /* GNU compiler */
#define ALIGN(X) __attribute__((aligned(X)))
#define DEFINE_SECTION(x) __attribute__((section(x)))
#elif defined (_MSC_VER)
#define ALIGN(X) __declspec(align(X))
#elif defined (__TASKING__) /* TASKING Compiler */
#define ALIGN(X) __align(X)
#define DEFINE_SECTION(x) __attribute__((section(x)))
#elif defined (__ARMCC_VERSION) /* Arm Compiler */
#define ALIGN(X) __ALIGNED(x)
#define DEFINE_SECTION(x) __attribute__((section(x)))
#elif defined (__ICCARM__) /* IAR Compiler */
#define ALIGN(x) __attribute__((aligned(x)))
#define DEFINE_SECTION(x) __attribute__((section(x)))
#elif defined (__clang__) /* LLVM/Clang Compiler */
#define ALIGN(X) __ALIGNED(x)
#define DEFINE_SECTION(x) __attribute__((section(x)))
#endif

#if defined(EI_MODEL_SECTION) && (defined(__GNUC__) || defined(__clang__))
#define MODEL_SECTION(X) __attribute__((section(STRINGIZE_VALUE_OF(X))))
#else
#define MODEL_SECTION(X)
#endif

#ifndef EI_MAX_SCRATCH_BUFFER_COUNT
#ifndef CONFIG_IDF_TARGET_ESP32S3
#define EI_MAX_SCRATCH_BUFFER_COUNT 4
#else
#define EI_MAX_SCRATCH_BUFFER_COUNT 4
#endif // CONFIG_IDF_TARGET_ESP32S3
#endif // EI_MAX_SCRATCH_BUFFER_COUNT

#ifndef EI_MAX_OVERFLOW_BUFFER_COUNT
#define EI_MAX_OVERFLOW_BUFFER_COUNT 10
#endif // EI_MAX_OVERFLOW_BUFFER_COUNT

using namespace tflite;
using namespace tflite::ops;
using namespace tflite::ops::micro;

namespace {

#if defined(EI_CLASSIFIER_ALLOCATION_STATIC_HIMAX) || defined(EI_CLASSIFIER_ALLOCATION_STATIC_HIMAX_GNU)
constexpr int kTensorArenaSize = 2096;
#else
constexpr int kTensorArenaSize = 1072;
#endif

#if defined(EI_CLASSIFIER_ALLOCATION_STATIC)
#if defined (EI_TENSOR_ARENA_LOCATION)
uint8_t tensor_arena[kTensorArenaSize] ALIGN(16) DEFINE_SECTION(STRINGIZE_VALUE_OF(EI_TENSOR_ARENA_LOCATION));
#else
uint8_t tensor_arena[kTensorArenaSize] ALIGN(16);
#endif
#elif defined(EI_CLASSIFIER_ALLOCATION_STATIC_HIMAX)
#pragma Bss(".tensor_arena")
uint8_t tensor_arena[kTensorArenaSize] ALIGN(16);
#pragma Bss()
#elif defined(EI_CLASSIFIER_ALLOCATION_STATIC_HIMAX_GNU)
uint8_t tensor_arena[kTensorArenaSize] ALIGN(16) __attribute__((section(".tensor_arena")));
#else
#define EI_CLASSIFIER_ALLOCATION_HEAP 1
uint8_t* tensor_arena = NULL;
#endif

static uint8_t* tensor_boundary;
static uint8_t* current_location;

template <int SZ, class T> struct TfArray {
  int sz; T elem[SZ];
};

enum used_operators_e {
  OP_FULLY_CONNECTED,  OP_LAST
};

struct TensorInfo_t { // subset of TfLiteTensor used for initialization from constant memory
  TfLiteAllocationType allocation_type;
  void* data;
  TfLiteIntArray* dims;
  size_t bytes;
};

typedef struct {
  TfLiteTensor tensor;
  int16_t index;
} TfLiteTensorWithIndex;

typedef struct {
  TfLiteEvalTensor tensor;
  int16_t index;
} TfLiteEvalTensorWithIndex;

TfLiteContext ctx{};
static const int MAX_TFL_TENSOR_COUNT = 4;
static TfLiteTensorWithIndex tflTensors[MAX_TFL_TENSOR_COUNT];
static const int MAX_TFL_EVAL_COUNT = 4;
static TfLiteEvalTensorWithIndex tflEvalTensors[MAX_TFL_EVAL_COUNT];
TfLiteRegistration registrations[OP_LAST];

namespace g0 {
const TfArray<2, int> tensor_dimension0 = { 2, { 1,10 } };
const MODEL_SECTION(EI_MODEL_SECTION) ALIGN(16) float tensor_data1[64] = { -0.26054814457893372, 0.70377236604690552, 0.85745173692703247, 1.2964342832565308, -0.02519332617521286, 0.73572885990142822, 0.96543824672698975, 0.0014233528636395931, 1.4418436288833618, 0.8989216685295105, 1.0560506582260132, -0.025696156546473503, 0.89915883541107178, 1.0726518630981445, 0.66619616746902466, 0.8900492787361145, 0.78856945037841797, 0.83105462789535522, 0.70229834318161011, 0.55365872383117676, 0.94482719898223877, 0.61695700883865356, 0.96288543939590454, 0.70887243747711182, 0.83981144428253174, -0.034668751060962677, 0.76140487194061279, 0.77839452028274536, -0.10466666519641876, 0.50945335626602173, 1.0066155195236206, 0.72670918703079224, 0.88501816987991333, 0.72011834383010864, 1.004410982131958, 0.74377477169036865, 0.96617686748504639, 1.4642746448516846, 2.0491745471954346, 0.78208881616592407, 0.71257263422012329, 0.82036012411117554, 0.74352353811264038, 0.7343062162399292, -0.14432229101657867, 0.72815948724746704, 0.52520537376403809, -0.57024484872817993, 0.74097132682800293, 0.86284744739532471, 1.7008527517318726, 0.014491166919469833, 0.94109195470809937, -0.055523645132780075, -0.087205313146114349, 0.16105391085147858, -1.2191622257232666, 0.10677175223827362, 0.72088360786437988, 0.85035878419876099, 0.80120670795440674, 0.78584027290344238, 1.1258989572525024, -0.039097849279642105, };
const TfArray<1, int> tensor_dimension1 = { 1, { 64 } };
const MODEL_SECTION(EI_MODEL_SECTION) ALIGN(16) float tensor_data2[16] = { -0.010943574830889702, -0.022399542853236198, -0.022662533447146416, -0.02193506620824337, -0.75069361925125122, -0.014863087795674801, -0.019760245457291603, -0.051969118416309357, -0.020773874595761299, -0.077685512602329254, 0.62043207883834839, 0.73586606979370117, 0.68832355737686157, -0.037829507142305374, -0.046677928417921066, -0.013973992317914963, };
const TfArray<1, int> tensor_dimension2 = { 1, { 16 } };
const MODEL_SECTION(EI_MODEL_SECTION) ALIGN(16) float tensor_data3[128] = { -0.09371454268693924, -0.29787388443946838, -0.18706002831459045, -0.072359614074230194, -0.42974662780761719, -0.33067557215690613, -0.10267302393913269, -0.17515185475349426, 0.0087853232398629189, -0.091226927936077118, -0.29485741257667542, -0.39767205715179443, -0.37021076679229736, -0.15165337920188904, -0.16998210549354553, -0.63327479362487793, -0.10258512943983078, -0.39636626839637756, -0.18959750235080719, -0.24893590807914734, -0.23080876469612122, -0.25579965114593506, 0.071002818644046783, -0.12488310039043427, -0.06870318204164505, -0.24074879288673401, 0.064164914190769196, 0.0159720778465271, -0.14390785992145538, -0.10565685480833054, -0.10625126957893372, -0.24865204095840454, -0.2256050705909729, -0.46562847495079041, -0.17212571203708649, 0.036930963397026062, -0.069189131259918213, -0.048792019486427307, -0.13757738471031189, -0.18519037961959839, -0.16920831799507141, 0.012014711275696754, -0.18715521693229675, -0.30727347731590271, -0.32176697254180908, -0.59099555015563965, -0.035228505730628967, -0.45739099383354187, -0.20615111291408539, 0.03907134011387825, -0.12851376831531525, -0.41942110657691956, -0.31410384178161621, -0.11104782670736313, -0.28082937002182007, -0.1113426610827446, -0.23476956784725189, -0.20789512991905212, -0.17993053793907166, 0.13384582102298737, -0.058782905340194702, -0.1234392374753952, 0.1291351318359375, -0.058075442910194397, -0.16960281133651733, -0.12354129552841187, -0.22324027121067047, -0.086063504219055176, -0.12418951839208603, -0.070708580315113068, -0.1814083606004715, -0.14017766714096069, -0.16537369787693024, -0.2253451943397522, -0.50431627035140991, -0.20680952072143555, -0.19860754907131195, -0.16494470834732056, -0.34079596400260925, -0.18067333102226257, -0.40958178043365479, -0.26465907692909241, -0.54066383838653564, -0.22649289667606354, 0.088324636220932007, -0.48333945870399475, -0.13401560485363007, 0.034071166068315506, -0.33811491727828979, -0.1305115669965744, -0.10302382707595825, -0.35469222068786621, 0.13752640783786774, -0.20363739132881165, 0.066930860280990601, 0.045947946608066559, -0.0034680028911679983, -0.49343210458755493, -0.17576934397220612, -0.45853117108345032, -0.096314340829849243, -0.089658111333847046, -0.16694238781929016, -0.11726043373346329, -0.59029215574264526, -0.23980514705181122, -0.45046207308769226, -0.11522756516933441, -0.21590796113014221, -0.037515413016080856, -0.3838939368724823, -0.21640588343143463, -0.38046246767044067, -0.079841367900371552, -0.40620031952857971, -0.060515660792589188, -0.23656196892261505, -0.1744270920753479, -0.14584837853908539, -0.21755778789520264, -0.53950929641723633, -0.19006992876529694, -0.065517686307430267, -0.15792861580848694, -0.15455737709999084, -0.10605759918689728, -0.11506500840187073, -0.6069064736366272, };
const TfArray<1, int> tensor_dimension3 = { 1, { 128 } };
const MODEL_SECTION(EI_MODEL_SECTION) ALIGN(4) float tensor_data4[1] = { 0.60219734907150269, };
const TfArray<1, int> tensor_dimension4 = { 1, { 1 } };
const MODEL_SECTION(EI_MODEL_SECTION) ALIGN(16) float tensor_data5[128*10] = { 
  0.02315412275493145, 0.0046183685772120953, 0.024841370061039925, 0.026247350499033928, -0.010934638790786266, 0.096743196249008179, -0.16337235271930695, -0.068655870854854584, -0.074505135416984558, 0.0097241597250103951, 
  -0.063213460147380829, -0.04824458435177803, -0.027805637568235397, 0.037982858717441559, -0.015511896461248398, 0.087944217026233673, -0.11922116577625275, 0.020873885601758957, -0.062951579689979553, 0.0042119817808270454, 
  0.0049890084192156792, -0.014314187690615654, 0.064876943826675415, 0.059696659445762634, 0.0035616070963442326, 0.11900893598794937, -0.14815683662891388, -0.092216357588768005, 0.037214212119579315, 0.17732127010822296, 
  -0.19753345847129822, 0.1796966940164566, -0.0015796974766999483, 0.014328067190945148, 0.0075152725912630558, 0.063021093606948853, -0.055474106222391129, 0.0053423978388309479, -0.0096668517217040062, 0.0089228376746177673, 
  0.25545406341552734, -0.035522587597370148, -0.11277332901954651, -0.032476916909217834, 0.043801542371511459, 0.27194064855575562, -0.08550543338060379, -0.0075943903066217899, 0.047265008091926575, -0.11110525578260422, 
  0.081226326525211334, -0.034115716814994812, -0.012348519638180733, -0.11540666222572327, 0.038754791021347046, 0.05980561301112175, 0.067105233669281006, 0.017957514151930809, 0.058351024985313416, 0.1368546187877655, 
  0.12327959388494492, -0.068627044558525085, 0.0021445425227284431, -0.0064105754718184471, -0.048019852489233017, -0.1273932158946991, 0.034344609826803207, -0.1320529580116272, -0.0002958990226034075, -0.16076207160949707, 
  0.08285154402256012, -0.093554787337779999, -0.0032962507102638483, -0.061813052743673325, -0.012973991222679615, 0.001963046146556735, 0.011251418851315975, -0.074740514159202576, 0.041093826293945312, 0.0086628664284944534, 
  0.083950981497764587, -0.094995982944965363, 0.020169278606772423, 0.027836266905069351, -0.097182862460613251, 0.019553372636437416, -0.042602416127920151, -0.071652904152870178, 0.033904548734426498, 0.24058838188648224, 
  -0.046967700123786926, 0.044583365321159363, -0.0010926919057965279, 0.0090769464150071144, 0.013279709964990616, -0.14621105790138245, 0.1497863233089447, -0.16681249439716339, 0.13008730113506317, 0.014634560793638229, 
  0.1180528998374939, -0.2136213481426239, -0.0096125481650233269, 0.070260025560855865, 0.049406956881284714, 0.015026111155748367, 0.018588094040751457, -0.11636839807033539, 0.093334078788757324, 0.036837317049503326, 
  -0.080980129539966583, -0.0011216807179152966, 0.016148732975125313, 0.12202261388301849, 0.011382999829947948, 0.0068416986614465714, 0.011050638742744923, 0.019771074876189232, -0.00073770852759480476, 0.46409893035888672, 
  -0.021675329655408859, -0.061061780899763107, 0.0012555706780403852, 0.020163141191005707, 0.034044582396745682, -0.0068269651383161545, 0.060533925890922546, 0.024332227185368538, -0.014333280734717846, 0.40388679504394531, 
  0.12686713039875031, 0.1434188038110733, 0.095730394124984741, 0.092387199401855469, 0.027041517198085785, -0.082649603486061096, -0.021541649475693703, -0.067307516932487488, 0.02707652747631073, -0.025785787031054497, 
  0.0069675548002123833, -0.007098970003426075, 0.075676068663597107, 0.042548932135105133, 0.034799270331859589, 0.016237329691648483, -0.045770518481731415, 0.0079736728221178055, 0.019200908020138741, -0.052225124090909958, 
  -0.12369919568300247, 0.077127158641815186, -0.028749300166964531, 0.041578855365514755, 0.023646680638194084, -0.11106039583683014, 0.10410144180059433, 0.024630440399050713, -0.021133037284016609, 0.41086998581886292, 
  0.047275234013795853, -0.0098332660272717476, -0.0081519531086087227, 0.0030554607510566711, -0.057695228606462479, 0.015338025987148285, -0.026803812012076378, -0.013258449733257294, 0.0049421340227127075, 0.16631618142127991, 
  -0.057090464979410172, 0.18452437222003937, 0.12985517084598541, -0.078744217753410339, 0.029225606471300125, -0.021292898803949356, 0.15195232629776001, 0.03423844650387764, 0.069994032382965088, 0.039386644959449768, 
  -0.17684236168861389, 0.14294829964637756, -0.010458216071128845, 0.024303257465362549, 0.010628768242895603, -0.17674477398395538, 0.16109071671962738, -0.010805808007717133, -0.0066789253614842892, 0.027638383209705353, 
  -0.050478823482990265, 0.038199979811906815, 0.10934854298830032, -0.071167312562465668, 0.031266842037439346, 0.11067681014537811, -0.13501375913619995, -0.20455218851566315, -0.10298915952444077, 0.09114103764295578, 
  0.046712368726730347, -0.048948027193546295, -0.014335370622575283, 0.046303410083055496, 0.033285420387983322, -0.10077106952667236, 0.08835427463054657, -0.03607022762298584, -0.054132331162691116, 0.021838432177901268, 
  0.020035453140735626, 0.030915955081582069, -0.070319533348083496, -0.24870008230209351, -0.038973700255155563, 0.16258791089057922, -0.0059830471873283386, -0.0039388053119182587, 0.043525245040655136, 0.093639619648456573, 
  -0.031491454690694809, 0.028878040611743927, 0.0038378960452973843, 0.024903705343604088, -0.002971102949231863, -0.10972381383180618, 0.096360541880130768, 0.0012541908072307706, 0.0094947647303342819, 0.18040819466114044, 
  0.083179600536823273, -0.10212145000696182, 0.018753718584775925, 0.0085909683257341385, -0.0023077668156474829, -0.10357841849327087, 0.09761500358581543, 0.031859513372182846, -0.017675586044788361, -0.12548963725566864, 
  0.11473986506462097, -0.12857519090175629, 0.012337503954768181, 0.016186803579330444, 0.011956587433815002, -0.012276795692741871, 0.0074554998427629471, -0.015125959180295467, 0.010945003479719162, 0.010521647520363331, 
  -0.04632950946688652, -0.0068313982337713242, 0.054863598197698593, 0.0067120199091732502, 0.002433830639347434, -0.031171536073088646, 0.031143561005592346, 2.728368826865335e-06, 0.0036147341597825289, -0.010446023195981979, 
  -0.059275329113006592, 0.068472564220428467, -0.0086407102644443512, -0.019726522266864777, 0.010161365382373333, 0.070763304829597473, -0.095250904560089111, 0.0092566786333918571, -0.0074015874415636063, 0.11900480091571808, 
  -0.1244877502322197, 0.11364605277776718, 0.018981141969561577, 0.021740427240729332, -0.15474395453929901, -0.18243676424026489, 0.18175646662712097, -0.0090132085606455803, 0.026215817779302597, 0.29223653674125671, 
  0.1498478502035141, -0.2025529146194458, -0.028241479769349098, -0.019528137519955635, -0.047526061534881592, 0.013603776693344116, 0.023745013400912285, 0.016974830999970436, -0.03513554111123085, 0.026397896930575371, 
  -0.064570367336273193, 0.020719084888696671, -0.014131944626569748, -0.0056312731467187405, 0.010737317614257336, 0.10011213272809982, -0.067539751529693604, -0.026712730526924133, 0.045456886291503906, -0.019443897530436516, 
  0.017408555373549461, -0.052310340106487274, -7.7765391324646771e-05, 0.025954907760024071, 0.019109774380922318, 0.021399032324552536, -0.0031180286314338446, 0.0032122763805091381, -0.012046985328197479, 0.014554710127413273, 
  -0.076904110610485077, -0.17594574391841888, -0.088711090385913849, -0.039311535656452179, -0.0082079032436013222, 0.072241194546222687, 0.13023310899734497, 0.024375425651669502, 0.059294369071722031, -0.020590869709849358, 
  -0.15758833289146423, 0.1069057360291481, 0.075319752097129822, -0.085184045135974884, 0.0349574014544487, 0.1213042363524437, 0.027675919234752655, 0.026942823082208633, 0.12045805156230927, -0.042779415845870972, 
  -0.19487623870372772, 0.10071960836648941, -0.0018197064055129886, 0.095285579562187195, 0.00041246248292736709, -0.04652298241853714, 0.067767970263957977, 0.0044933026656508446, 0.0014920980902388692, 0.52577435970306396, 
  -0.19887895882129669, 0.17151945829391479, 0.010352415964007378, -0.0052770720794796944, 0.0013346959603950381, 0.013294985517859459, -0.0088240811601281166, -0.022403547540307045, -0.031692840158939362, 0.027859823778271675, 
  0.043457336723804474, -0.032095029950141907, 0.0090096797794103622, -0.021268067881464958, 0.0054301614873111248, 0.14424099028110504, -0.13395313918590546, -0.00074405694613233209, -0.00084688002243638039, 0.14828214049339294, 
  -0.014166713692247868, 0.023538000881671906, -0.052478030323982239, -0.11375688761472702, -0.044763177633285522, -0.025964604690670967, 0.11813348531723022, 0.016356151551008224, -0.02535979263484478, -0.072357766330242157, 
  0.11167483776807785, -0.078042745590209961, 0.029796276241540909, -0.026496812701225281, -0.0063056554645299911, -0.046591408550739288, 0.043548300862312317, -0.0022619091905653477, -0.0048526138998568058, 0.16669154167175293, 
  0.012078249827027321, -0.0037000153679400682, 0.03023371659219265, -0.0039081387221813202, -0.0061285546980798244, -0.09859185665845871, 0.065857455134391785, -0.028067247942090034, 0.0030616489239037037, -0.026244932785630226, 
  0.11118651926517487, -0.10926228761672974, 0.018262417986989021, 0.13958574831485748, 0.009067220613360405, -0.086380451917648315, 0.005399766843765974, -0.10549589246511459, -0.10093531012535095, 0.019848085939884186, 
  -0.0084659531712532043, 0.020021753385663033, 0.012646811082959175, 0.019749714061617851, -0.013960098847746849, -0.051682554185390472, 0.037614922970533371, -0.036875598132610321, -0.036691188812255859, -0.084199070930480957, 
  0.1673581600189209, -0.11554194241762161, 0.074067898094654083, -0.15512752532958984, -0.14053311944007874, 0.078614681959152222, -0.014859708026051521, -0.13446415960788727, -0.06716359406709671, -0.17721331119537354, 
  -0.10596680641174316, 0.056733284145593643, -0.020329542458057404, -0.033239606767892838, -0.044595032930374146, -0.028960030525922775, 0.088870413601398468, 0.017722727730870247, -0.0085247009992599487, 0.0076754712499678135, 
  -0.12255630642175674, 0.13632321357727051, 0.04408114030957222, 0.070482224225997925, -0.0076385168358683586, -0.019578926265239716, -0.053563181310892105, -0.14020462334156036, 0.0086765028536319733, 0.27478209137916565, 
  0.115613654255867, -0.087157361209392548, -0.065818235278129578, 0.12139923125505447, 0.031895052641630173, -0.063973307609558105, -0.022430380806326866, -0.068771861493587494, -0.15408723056316376, 0.034392498433589935, 
  -0.018730411306023598, -0.086908034980297089, 0.010079119354486465, 0.11567485332489014, 0.0058964607305824757, -0.07612156867980957, 0.067994438111782074, 0.016945483162999153, -0.032440904527902603, 0.6337476372718811, 
  -0.055989280343055725, 0.11854614317417145, 0.014303135685622692, -0.0064401836134493351, -0.027839425951242447, -0.008988003246486187, -0.055063255131244659, -0.1171780601143837, -0.0071852863766252995, 0.034249931573867798, 
  0.037398297339677811, 0.053235471248626709, -0.23937882483005524, 0.22656059265136719, 0.13274164497852325, -0.025445902720093727, 0.16869963705539703, -0.023467674851417542, 0.041693940758705139, 0.083755820989608765, 
  0.015107154846191406, -0.035134565085172653, 0.0031770879868417978, 0.0087535707280039787, 0.028829092159867287, -0.07983032613992691, 0.089024752378463745, -0.016546091064810753, -0.019944950938224792, 0.031382065266370773, 
  -0.14242082834243774, 0.10612673312425613, -0.050129212439060211, -0.035902801901102066, 0.017909558489918709, 0.2202119380235672, -0.12112593650817871, 0.00020210049115121365, 0.024983137845993042, 0.10407304763793945, 
  0.079939916729927063, -0.02223561517894268, 0.0038615409284830093, -0.11966404318809509, -0.071600332856178284, 0.19739511609077454, -0.15967866778373718, -0.0015626573003828526, -0.0028570692520588636, 0.07983100414276123, 
  0.0025378984864801168, -0.039267342537641525, 0.021026333793997765, 0.094500385224819183, 0.062261182814836502, 0.073935329914093018, -0.1171903982758522, -0.14632640779018402, 0.1301330178976059, 0.48567649722099304, 
  0.045657951384782791, -0.12208675593137741, -0.014746588654816151, -0.0028558922931551933, 0.059921994805335999, 0.10739120095968246, -0.038301419466733932, 0.0090894615277647972, -0.0043363459408283234, 0.052713382989168167, 
  -0.17532476782798767, 0.11676549911499023, 0.00097992154769599438, 0.084622941911220551, -0.037505108863115311, 0.041839573532342911, -0.041742470115423203, 0.030756006017327309, -0.02898566797375679, 0.1831677109003067, 
  -0.061265874654054642, 0.033788017928600311, 0.087203264236450195, 0.12700146436691284, 0.053684841841459274, -0.089098691940307617, 0.049732860177755356, 0.014844272285699844, 0.0046206153929233551, -0.034931469708681107, 
  0.015924744307994843, -0.0034508467651903629, -0.0084608420729637146, -0.0097824661061167717, -0.086630798876285553, -0.065864831209182739, 0.075169242918491364, -0.017153132706880569, -0.019321136176586151, -0.028157111257314682, 
  -0.12601065635681152, 0.067946381866931915, -0.030592072755098343, 0.1519894152879715, 0.063513383269309998, -0.050770815461874008, 0.072594106197357178, -0.064905144274234772, -0.026321804150938988, -0.048051238059997559, 
  0.13536737859249115, -0.0013704667799174786, -0.044110193848609924, -0.15963535010814667, -0.16685695946216583, -0.016374357044696808, 0.043647322803735733, -0.016415074467658997, -0.087946631014347076, -0.23101170361042023, 
  0.06502097100019455, -0.027746168896555901, 0.0012378577375784516, 0.045106466859579086, -0.033393457531929016, 0.056182932108640671, -0.10357115417718887, -0.045340981334447861, -0.016119498759508133, -0.025986019521951675, 
  -0.084062278270721436, 0.074144557118415833, -0.00074301217682659626, 0.009226958267390728, -0.0040967208333313465, -0.018071549013257027, 0.02187689021229744, -0.001833323622122407, -0.01052521076053381, 0.19179248809814453, 
  0.12867915630340576, -0.073600158095359802, 0.022074436768889427, 0.03103705495595932, -0.024338532239198685, 0.062344688922166824, -0.13268990814685822, -0.014687604270875454, -0.0033868243917822838, -0.15886922180652618, 
  0.083688504993915558, -0.15118727087974548, -0.0027181543409824371, -0.021380532532930374, 0.0024072609376162291, -0.057050563395023346, 0.094277098774909973, 0.010914271697402, -0.013624083250761032, 0.0023558402899652719, 
  -0.10411868244409561, 0.10750463604927063, 0.0044005699455738068, 0.013427477329969406, -0.0061553171835839748, -0.032047208398580551, 0.0087094968184828758, 6.3578445406164974e-05, -0.0076387375593185425, 0.18348953127861023, 
  0.083675459027290344, -0.084498390555381775, -0.0025884846691042185, -0.011465335264801979, -0.013356740586459637, -0.060949359089136124, 0.061706271022558212, -0.0092723574489355087, -0.0027225024532526731, -0.025651995092630386, 
  -0.1070403978228569, 0.12248993664979935, 0.032941378653049469, 0.022318404167890549, -0.015039684250950813, -0.084552563726902008, 0.048696156591176987, -0.078398808836936951, -0.021199068054556847, -0.0084206098690629005, 
  -0.013871403411030769, 0.04399292916059494, 0.032026227563619614, -0.00072442827513441443, -0.0077697993256151676, -0.16419750452041626, 0.12866117060184479, -0.028462324291467667, -0.0054861693643033504, -0.010559218004345894, 
  -0.1744077056646347, 0.0070610125549137592, -0.017377603799104691, 0.0036980286240577698, 0.013336513191461563, 0.012161393649876118, 0.060328390449285507, 0.0028688223101198673, 0.058679345995187759, -0.0076216612942516804, 
  0.16212452948093414, 0.066465362906455994, 0.14304494857788086, 0.069471202790737152, 0.0077472277916967869, -0.11333942413330078, -0.019301474094390869, -0.052034102380275726, 0.087119638919830322, 0.026444632560014725, 
  0.062157947570085526, -0.085108697414398193, 0.0037858891300857067, -0.02013746090233326, -0.064611420035362244, -0.02296924777328968, 0.0003174603043589741, 0.0012335127685219049, -0.061908356845378876, -0.0091026658192276955, 
  0.012613723985850811, 0.0021386018488556147, 0.0059050964191555977, 0.00734312878921628, -0.080231025815010071, 0.05678364634513855, -0.066651716828346252, -0.047249097377061844, 0.023269541561603546, -0.0026406198740005493, 
  -0.066783346235752106, 0.05901699885725975, 0.02061927318572998, 0.050386276096105576, -0.0043838508427143097, 0.051602181047201157, -0.088704571127891541, -0.0006264164112508297, -0.10837601870298386, -0.0048846029676496983, 
  -0.093502603471279144, 0.11180148273706436, 0.0035249192733317614, 0.020962558686733246, -0.01383796613663435, 0.047295179218053818, -0.049989838153123856, 0.012826957739889622, -0.066029466688632965, -0.042416352778673172, 
  -0.061024010181427002, -0.0096293864771723747, -0.0031811455264687538, 0.062456626445055008, 0.0048932922072708607, 0.17050682008266449, -0.11119110882282257, 0.037243671715259552, -0.00051256682490929961, 0.24422639608383179, 
  -0.0065872804261744022, -0.12689529359340668, 0.011456495150923729, -0.044904306530952454, 0.052441127598285675, -0.0079061202704906464, 0.1419936865568161, 0.021481269970536232, 0.0065938080660998821, -0.022059662267565727, 
  0.095150381326675415, -0.10470737516880035, 0.018847085535526276, 0.047915436327457428, -0.010469070635735989, 0.01969161257147789, -0.034323953092098236, 0.0076451534405350685, -0.050835262984037399, 0.22480098903179169, 
  -0.20160774886608124, 0.16132715344429016, 0.014161032624542713, 0.012378210201859474, 0.052292287349700928, 0.02073180302977562, -0.020757684484124184, 0.028405284509062767, -0.0052758450619876385, -0.24593596160411835, 
  0.015211976133286953, -0.030364759266376495, -0.016443211585283279, 0.016074538230895996, 0.017867326736450195, 0.024750854820013046, -0.046655680984258652, -0.023286215960979462, -0.00024675470194779336, 0.031228506937623024, 
  0.13621385395526886, -0.20520250499248505, -0.011517088860273361, -0.021601978689432144, 0.0013300031423568726, 0.19965292513370514, -0.14628320932388306, 0.022737482562661171, -0.021386785432696342, 0.015278401784598827, 
  -0.10526368021965027, 0.0875682532787323, 0.021942136809229851, -0.069248132407665253, 0.020048771053552628, 0.09488031268119812, -0.084744662046432495, -0.11180638521909714, -0.020058998838067055, 0.044049959629774094, 
  -0.021349694579839706, 0.033996988087892532, -0.039477862417697906, 0.0022906234953552485, 0.014701404608786106, -0.080993130803108215, 0.05463588610291481, -0.0071159852668642998, -0.028023572638630867, 0.015627078711986542, 
  0.01859496533870697, -0.026371706277132034, 0.041355732828378677, 0.09215729683637619, 0.0017278960440307856, 0.0022999614011496305, -0.056961558759212494, -0.14849124848842621, 0.090783342719078064, 0.39355665445327759, 
  0.047767560929059982, -0.072573103010654449, -0.0023317907471209764, 0.060249503701925278, 0.045994028449058533, -0.029425149783492088, 0.021867027506232262, -0.021059850230813026, 0.00022927293321117759, -0.26322394609451294, 
  0.073515795171260834, -0.17534513771533966, 0.0070573901757597923, 0.10824146866798401, -0.0016810500528663397, -0.1005546897649765, 0.086413852870464325, 0.014335731975734234, -0.0058325626887381077, 0.59114032983779907, 
  -0.091093435883522034, 0.10385284572839737, -0.0049555250443518162, -0.0011918238596990705, -0.0093479519709944725, -0.012324451468884945, -0.03479309007525444, 0.0049266819842159748, -0.036344122141599655, -0.27778291702270508, 
  -0.023870697245001793, 0.090053282678127289, 0.037346728146076202, 0.040818266570568085, -0.0038168756291270256, 0.016512550413608551, -0.086025699973106384, -0.044581376016139984, 0.034100603312253952, 0.13121557235717773, 
  -0.031125567853450775, 0.076006703078746796, -0.044815327972173691, 0.19450549781322479, -0.022693181410431862, -0.081366553902626038, -0.052134640514850616, -0.012728072702884674, -0.26083177328109741, 0.160840705037117, 
  -0.161238893866539, 0.16437388956546783, 0.00020580508862622082, 0.024455245584249496, -0.01063678041100502, 0.0045902319252490997, -0.0071705593727529049, -0.081527210772037506, 0.019381377846002579, 0.018185598775744438, 
  0.069133378565311432, -0.12022966146469116, -0.046991750597953796, -0.023034943267703056, 0.010972215794026852, 0.0057728108949959278, 0.10378194600343704, 0.012007567100226879, 0.025405470281839371, 0.096865817904472351, 
  0.017176438122987747, 0.0075383763760328293, -0.0033738506026566029, -0.023535856977105141, -0.0011759422486647964, -0.10432138293981552, 0.11138660460710526, 0.0025360691361129284, -0.0029913275502622128, -0.36438882350921631, 
  -0.031452100723981857, 0.013290727511048317, 0.035558674484491348, -0.17541021108627319, -0.03771953284740448, 0.029414976015686989, 0.097192756831645966, 0.0085574230179190636, 0.051266040652990341, 0.051507182419300079, 
  -0.016068203374743462, -0.040099106729030609, -0.045560210943222046, 0.2712760865688324, -0.020496591925621033, 0.015877425670623779, -0.04951738566160202, -0.049229353666305542, 0.0055656018666923046, 0.0054434048943221569, 
  0.093748800456523895, 0.079875245690345764, -0.0074722073040902615, 0.33172163367271423, 0.045384760946035385, -0.066650964319705963, 0.13138636946678162, -0.006730994675308466, 0.075510628521442413, -0.096919946372509003, 
  0.029080348089337349, -0.025727970525622368, -0.00024510745424777269, 0.011319993063807487, -0.0021619803737848997, 0.11105862259864807, -0.11779511719942093, 0.0048868679441511631, -0.010389324277639389, 0.1902557909488678, 
  0.036645948886871338, -0.061205808073282242, 0.0041446755640208721, 0.023978235200047493, 0.045386482030153275, -0.040207736194133759, 0.010884346440434456, -0.0085373334586620331, -0.19669827818870544, 0.044856037944555283, 
  -0.013387388549745083, 0.0051608285866677761, 0.007275301031768322, 0.025373555719852448, 0.0010130908340215683, -0.075167641043663025, 0.056122288107872009, 0.0044504278339445591, 0.00010827925871126354, 0.26468122005462646, 
  -0.16430218517780304, 0.19266404211521149, -0.06307162344455719, -0.042845550924539566, -0.0087077897042036057, -0.055055137723684311, 0.1042768657207489, 0.020137105137109756, -0.021268285810947418, 0.1322261244058609, 
  0.097758151590824127, -0.034292452037334442, 0.03636552020907402, -0.081617780029773712, -0.14472176134586334, 0.078375354409217834, -0.057686571031808853, 0.14386610686779022, -0.087524555623531342, -0.038477931171655655, 
  0.22276459634304047, -0.0019014653516933322, -0.17193011939525604, -0.069378726184368134, -0.03055785596370697, 0.17536300420761108, -0.077459238469600677, 0.031500998884439468, -0.064235001802444458, -0.030186040326952934, 
  0.0415305495262146, -0.070750594139099121, -0.029667513445019722, 0.44229322671890259, -0.05092461034655571, 0.01983979158103466, -0.028033142909407616, 0.015491447411477566, -0.12188205122947693, -0.14718304574489594, 
  -0.15295968949794769, 0.078943945467472076, 0.010056168772280216, 0.1062871590256691, -0.001310370396822691, -0.20006385445594788, 0.18759503960609436, 0.011420481838285923, -0.0154016287997365, 0.5137101411819458, 
  -0.057402580976486206, -0.026149682700634003, -0.073358714580535889, 0.32675939798355103, -0.053364094346761703, 0.11531286686658859, -0.11236633360385895, -0.0081801479682326317, -0.050062157213687897, -0.071690768003463745, 
  0.11811555922031403, -0.061961118131875992, -0.0066593079827725887, -0.028010331094264984, -0.001059136469848454, -0.039962984621524811, 0.028864655643701553, -0.022479698061943054, -0.020565899088978767, 0.18102619051933289, 
  -0.07572387158870697, 0.10489302128553391, -0.0047936146147549152, -0.04351421445608139, -0.048585694283246994, -0.024546187371015549, -0.076085619628429413, -0.16346265375614166, -0.1535068154335022, 0.02022968977689743, 
  -0.044744051992893219, 0.025012373924255371, -0.0039299405179917812, 0.05112810805439949, 0.023812159895896912, -0.075805440545082092, 0.089685283601284027, -0.021099768579006195, 0.019541062414646149, 0.0062151974998414516, 
  -0.053182937204837799, -0.09073185920715332, -0.02433742955327034, -0.28722700476646423, -0.0012121303007006645, 0.068851090967655182, 0.15798510611057281, 0.035286564379930496, 0.043903455138206482, 0.060976132750511169, 
  -0.11729436367750168, 0.097859129309654236, 0.0091803167015314102, 0.041495088487863541, 0.027878578752279282, 0.0048208320513367653, -0.025103835389018059, -0.11590258777141571, 0.035410720854997635, 0.038833878934383392, 
  -0.059212107211351395, -0.067056931555271149, 0.05516347661614418, 0.04086829349398613, 0.067004956305027008, -0.014086094684898853, 0.034130796790122986, 0.017377449199557304, -0.053431928157806396, 0.10407818108797073, 
  -0.014088344760239124, 0.0089446855708956718, 1.144112138717901e-05, 0.0037125085946172476, -0.029327189549803734, 0.086516357958316803, -0.11718464642763138, -0.011536013334989548, -0.0014212322421371937, -0.0040335999801754951, 
  0.056364767253398895, -0.14202263951301575, -0.027435936033725739, 0.047677021473646164, 0.034463942050933838, 0.022509193047881126, -0.0010661754058673978, 0.026017071679234505, -0.012170614674687386, 0.15885961055755615, 
  0.017993150278925896, 0.097098223865032196, 0.034034214913845062, 0.0081336516886949539, -0.0071949143894016743, 0.117528036236763, -0.10200405120849609, 0.017554914578795433, -0.051970783621072769, -0.04385075718164444, 
  -0.063731640577316284, -0.06147301197052002, 0.022949511185288429, -0.087211981415748596, 0.043692536652088165, -0.081049017608165741, 0.18724700808525085, -0.050493668764829636, 0.13533325493335724, 0.016163477674126625, 
  -0.2271847128868103, 0.11403652280569077, -0.040748696774244308, 0.039213873445987701, 0.078634351491928101, -0.026083711534738541, 0.037949305027723312, 0.04385560005903244, -0.092599257826805115, 0.053900629281997681, 
  -0.030870826914906502, -0.03983597457408905, 0.0061294557526707649, 0.049215830862522125, -0.013926851563155651, 0.0096632996574044228, -0.032004490494728088, 0.0073639312759041786, -0.012829504907131195, 0.43786245584487915, 
  0.098040692508220673, -0.074007622897624969, 0.035887062549591064, 0.022612940520048141, -0.055440172553062439, -0.12271510809659958, 0.010716157034039497, 0.052544031292200089, -0.092677518725395203, -0.061951205134391785, 
  -0.04760327935218811, -0.075721941888332367, 0.051279928535223007, -0.23221483826637268, 0.0062330784276127815, -0.057433322072029114, -0.03048163466155529, 0.010892169550061226, 0.031058194115757942, 0.11912748962640762, 
  0.051439832895994186, 0.099926047027111053, 0.0088546406477689743, 0.058261778205633163, -0.0069866231642663479, -0.24533066153526306, 0.14258348941802979, -0.0060232672840356827, -0.048402290791273117, -0.039086293429136276, 
  0.051014360040426254, -0.02859131246805191, 0.0093960054218769073, -0.023327618837356567, -0.046202447265386581, -0.14249168336391449, 0.14953002333641052, 0.02899201400578022, 0.0024672187864780426, -0.26570615172386169, 
  0.040181849151849747, -0.11144869774580002, 0.026552118360996246, 0.023323819041252136, -0.036006558686494827, -0.075559720396995544, 0.070394821465015411, 0.045140180736780167, -0.028912167996168137, 0.2572995126247406, 
  0.0092415716499090195, -0.0050051230937242508, 0.017521264031529427, 0.043173033744096756, -0.017981557175517082, -0.034550771117210388, 0.0026600945275276899, -0.06125175952911377, -0.002712309593334794, 0.012442839331924915, 
  -0.032237332314252853, -0.035078220069408417, -0.021815331652760506, -0.078626655042171478, 0.0061358264647424221, -0.007664837408810854, 0.018822114914655685, -0.0081877242773771286, 0.018568817526102066, -0.3354279100894928, 
  -0.054706335067749023, 0.00041500138468109071, 0.014248095452785492, 0.13193497061729431, -0.024145187810063362, 0.081517875194549561, -0.079853847622871399, 0.01969415508210659, -0.015717919915914536, 0.6353529691696167, 
  0.17707012593746185, -0.092009164392948151, 0.072305090725421906, 0.42187708616256714, -0.093153409659862518, 0.027577467262744904, -0.11387121677398682, -0.028404567390680313, -2.2014435671735555e-05, -0.13984008133411407, 
  0.035298548638820648, -0.03582516685128212, -0.00074988021515309811, 0.015907492488622665, -0.047164525836706161, 0.088544733822345734, -0.097758784890174866, -0.027587138116359711, 0.014391976408660412, -0.010240237228572369, 
  -0.077766664326190948, 0.076481454074382782, 0.027318108826875687, 0.008204188197851181, 0.0081022558733820915, 0.062716580927371979, -0.084866337478160858, -0.023839246481657028, -0.015814121812582016, -0.051619268953800201, 
  0.042837269604206085, -0.07527429610490799, -0.0088453171774744987, -0.037356484681367874, 0.0042758341878652573, 0.14158254861831665, -0.10850156843662262, -0.01083055604249239, 0.027132079005241394, -0.05250963568687439, 
  -0.11034870147705078, 0.052604567259550095, 0.01005939394235611, -0.029474589973688126, -0.050445534288883209, -0.057642746716737747, 0.030964875593781471, -0.050886437296867371, -0.23634995520114899, 0.057397428900003433, 
  0.034141331911087036, -0.077502191066741943, -0.0025619908701628447, 0.010679908096790314, 0.021809253841638565, -0.055135279893875122, 0.078117311000823975, 0.0041882665827870369, 0.0031595451291650534, 0.0026579902041703463, 
  0.02952536940574646, -0.13084957003593445, 0.28841525316238403, -0.015836086124181747, 0.126535564661026, 0.039332736283540726, 0.044502507895231247, 0.010608123615384102, 0.1357007771730423, 0.034204762428998947, 
};
const TfArray<2, int> tensor_dimension5 = { 2, { 128,10 } };
const MODEL_SECTION(EI_MODEL_SECTION) ALIGN(16) float tensor_data6[64*128] = { 
  -0.34864076972007751, -0.086794584989547729, -0.18162652850151062, -0.2153298407793045, 0.15733683109283447, -0.20611955225467682, 0.040904246270656586, 0.054654348641633987, -0.22240130603313446, -0.16891643404960632, -0.21960583329200745, 0.027614038437604904, -0.24087168276309967, -0.071221791207790375, 0.048136401921510696, -0.1880517303943634, 0.15730556845664978, -0.039404395967721939, 0.085666298866271973, -0.10432626307010651, -0.078606709837913513, -0.043647568672895432, -0.023797353729605675, -0.029527842998504639, -0.32083800435066223, 0.18539224565029144, -0.15620642900466919, -0.38154837489128113, 0.23640412092208862, -0.026247628033161163, 0.053648773580789566, -0.063511572778224945, -0.1982564777135849, -0.069193705916404724, -0.15907809138298035, 0.11716600507497787, 0.046386752277612686, -0.098431006073951721, -0.22581592202186584, -0.18059444427490234, 0.015294797718524933, -0.13488627970218658, -0.018357250839471817, 0.012161571532487869, 0.15616978704929352, -0.15039974451065063, -0.41599324345588684, -0.37620779871940613, 0.046270359307527542, -0.31431731581687927, -0.1956370621919632, -0.12938648462295532, 0.086067125201225281, -0.095739945769309998, -0.058037623763084412, -0.049345832318067551, -0.078022018074989319, -0.15059174597263336, 0.016963869333267212, -0.34646192193031311, -0.037394266575574875, 0.050597101449966431, -0.20215460658073425, -0.094154335558414459, -0.25653937458992004, -0.24287046492099762, -0.032676249742507935, -0.14955472946166992, -0.1879468709230423, -0.3352300226688385, -0.077867321670055389, -0.15739509463310242, -0.11671730130910873, 0.12192746251821518, 0.037197351455688477, -0.23426556587219238, -0.2447919100522995, 0.12799493968486786, -0.22415576875209808, -0.15566651523113251, -0.35828894376754761, -0.024407237768173218, -0.48964971303939819, -0.10889340937137604, -0.40664595365524292, -0.06473231315612793, -0.22117355465888977, 0.02527654729783535, 0.011606027372181416, 0.14250132441520691, -0.22156339883804321, 0.090054668486118317, -0.021971218287944794, 0.10925404727458954, 0.057700622826814651, -0.2982012927532196, -0.099440582096576691, 0.099393650889396667, -0.32969710230827332, 0.09172511100769043, -0.20567396283149719, -0.066406264901161194, -0.44567477703094482, -0.10621120780706406, -0.13777612149715424, -0.11564428359270096, -0.14515849947929382, 0.052344370633363724, 0.11473096162080765, -0.016907492652535439, -0.1443338543176651, 0.042075034230947495, -0.12335393577814102, 0.10641057044267654, -0.21285651624202728, -0.11496814340353012, -0.28672245144844055, -0.14203859865665436, -0.17855994403362274, -0.20832149684429169, -0.24666211009025574, -0.10991564393043518, -0.058625496923923492, -0.003036493668332696, -0.022524746134877205, -0.10442303866147995, -0.155093714594841, -0.015042336657643318, 
  -0.070687770843505859, 0.018681474030017853, -0.062914818525314331, 0.17899654805660248, 0.21413318812847137, -0.097835130989551544, 0.046894129365682602, -0.15878652036190033, 0.047374468296766281, 0.012908698990941048, 0.15668085217475891, 0.022302620112895966, -0.057558551430702209, 0.27848803997039795, -0.044276941567659378, 0.10943449288606644, -0.078772671520709991, 0.063906453549861908, -0.013070574961602688, -0.16679808497428894, -0.032801821827888489, -0.073013953864574432, 0.12856526672840118, 0.088060513138771057, 0.20239697396755219, 0.2213701605796814, -0.068635910749435425, -0.12277676910161972, 0.065752714872360229, 0.095887504518032074, -0.0045674447901546955, 0.12918391823768616, 0.10420698672533035, 0.1947968602180481, 0.12361126393079758, -0.05089246854186058, -0.13876143097877502, -0.028391487896442413, -0.07845190167427063, -0.025121636688709259, 0.02937379851937294, 0.018925737589597702, 0.0041233771480619907, 0.076487176120281219, -0.0013273758813738823, 0.09254513680934906, 0.078384339809417725, 0.21158131957054138, -0.027521627023816109, -0.034899298101663589, 0.21629109978675842, 0.00016331553342752159, -0.10050381720066071, 0.14260077476501465, -0.067177765071392059, -0.096290014684200287, -0.00093684211606159806, 0.1646725982427597, 0.089409001171588898, 0.1186760738492012, 0.063971452414989471, -0.1532510370016098, 0.025452625006437302, 0.042750488966703415, -0.10967026650905609, 0.058654457330703735, -0.12799431383609772, 0.037632174789905548, -0.0052000405266880989, -0.018456028774380684, 0.034253403544425964, -0.086778558790683746, 0.028321124613285065, 0.0077688423916697502, 0.018691424280405045, 0.13527895510196686, 0.040722135454416275, -0.042699497193098068, 0.18944165110588074, -0.00096552388276904821, -0.0412551648914814, 0.068930730223655701, 0.15289872884750366, 0.058147013187408447, 0.18913057446479797, -0.12242712080478668, 0.018254714086651802, 0.13273504376411438, -0.15539254248142242, 0.048128612339496613, 0.16653129458427429, 0.023758996278047562, -0.08739180862903595, -0.079071886837482452, 0.18417888879776001, 0.17391178011894226, 0.04526173323392868, 0.15275807678699493, -0.073332518339157104, 0.12308524549007416, -0.1333969384431839, 0.097783192992210388, -0.015331894159317017, 0.070596188306808472, 0.00041901573422364891, -0.057137712836265564, -0.082508347928524017, 0.20022629201412201, 0.12974166870117188, 0.13576839864253998, 0.22108249366283417, 0.094248570501804352, 0.10887803882360458, 0.07529662549495697, 0.19046004116535187, 0.031069982796907425, -0.0014084632275626063, -0.056499622762203217, 0.081605955958366394, 0.17963305115699768, 0.0070834178477525711, 0.10283637791872025, 0.023166259750723839, -0.029359454289078712, 0.12979812920093536, 0.042097095400094986, 0.11899413913488388, -0.14032593369483948, 
  -0.021709604188799858, 0.081959843635559082, 0.22853773832321167, 0.15472897887229919, -0.060093328356742859, -0.056814320385456085, 0.14824089407920837, -0.12125980108976364, 0.0015877841506153345, 0.19546167552471161, 0.014851312153041363, 0.19727334380149841, 0.084841594099998474, -0.05902910977602005, -0.088453896343708038, 0.15262661874294281, 0.080505542457103729, -0.13664993643760681, 0.18577727675437927, -0.14811137318611145, -0.059419229626655579, 0.011763392016291618, 0.014956708066165447, 0.19915434718132019, -0.075973235070705414, 0.12857131659984589, 0.071199439465999603, -0.012454678304493427, -0.1321631520986557, 0.01166838314384222, -0.097543366253376007, -0.20492319762706757, -0.15678232908248901, -0.026274571195244789, -0.062161214649677277, 0.03080466203391552, -0.18799826502799988, 0.16729024052619934, 0.22983470559120178, -0.0077009079977869987, 0.12562182545661926, 0.21042783558368683, -0.11802508682012558, 0.14066280424594879, 0.054132629185914993, -0.053488276898860931, 0.07296278327703476, 0.2352738231420517, -0.10097420960664749, 0.19053159654140472, -0.050025824457406998, 0.18925265967845917, -0.12395281344652176, -0.035207353532314301, -0.040332235395908356, 0.21907387673854828, 0.16249974071979523, -0.096548624336719513, 0.12648743391036987, 0.020858494564890862, -0.082484021782875061, 0.085650928318500519, 0.058741699904203415, 0.22342327237129211, 0.26951101422309875, 0.088839098811149597, 0.0016571850283071399, 0.12030193954706192, 0.0040351054631173611, 0.069537438452243805, -0.088582560420036316, 0.0072987023741006851, -0.12041527032852173, 0.20103767514228821, -0.0010840578470379114, -0.094673171639442444, -0.16492968797683716, -0.060857094824314117, -0.035260997712612152, 0.043504495173692703, -0.064937993884086609, -0.011321031488478184, 0.082173563539981842, 0.15466153621673584, -0.036018162965774536, -0.0049697468057274818, 0.056716930121183395, 0.087349370121955872, -0.24893930554389954, 0.076561108231544495, 0.025297136977314949, -0.042412117123603821, 0.11534983664751053, 0.079291105270385742, 0.13686636090278625, 0.12816594541072845, -0.12732262909412384, 0.17434440553188324, 0.21513982117176056, -0.077838577330112457, 0.13181494176387787, -0.15302498638629913, -0.13326340913772583, 0.1369304358959198, -0.00084817147580906749, -0.084525845944881439, 0.023401219397783279, -0.031325291842222214, -0.16254884004592896, -0.14226451516151428, -0.084194846451282501, -0.10352853685617447, -0.022394498810172081, -0.0094110481441020966, 0.091865062713623047, -0.086094498634338379, -0.084286525845527649, 0.036291200667619705, 0.045204270631074905, 0.081655621528625488, 0.072149120271205902, 0.011110963299870491, -0.14557760953903198, 0.022132722660899162, 0.19845186173915863, 0.10981377959251404, 0.063211716711521149, -0.07657940685749054, 
  0.23754248023033142, -0.20751994848251343, -0.039136845618486404, 0.24187755584716797, -0.99865782260894775, -1.2530239820480347, -0.28329870104789734, 0.15120179951190948, 0.005186071153730154, -0.056855976581573486, 0.29532861709594727, -0.085810661315917969, -0.11726059764623642, -0.66048949956893921, -0.098066762089729309, -0.56385540962219238, -0.25769945979118347, -0.9622613787651062, 0.10231178253889084, 0.54972708225250244, 0.18525171279907227, -0.9840695858001709, 0.15173408389091492, 0.2666914165019989, 0.14725115895271301, 0.35929259657859802, 0.46119436621665955, 0.10000132024288177, 0.086332395672798157, 0.388968825340271, -0.12435564398765564, -0.19398392736911774, 0.24267733097076416, -0.07450355589389801, 0.30115184187889099, 0.18818320333957672, -0.0056595713831484318, -0.14337591826915741, 0.43802323937416077, -0.11686303466558456, 0.12934759259223938, -0.098438158631324768, -0.21389000117778778, -0.31031930446624756, -0.089305438101291656, -0.054093748331069946, 0.10289159417152405, -0.16556811332702637, 0.094049654901027679, 0.33350253105163574, -0.48150002956390381, -0.14188288152217865, -0.20933812856674194, 0.0020097924862056971, -0.056191530078649521, 0.28502905368804932, -0.47665530443191528, -0.71697711944580078, 0.38922932744026184, 0.52892625331878662, 0.30534076690673828, -0.065026022493839264, 0.35757207870483398, 0.65024334192276001, 0.21581777930259705, -0.0082593644037842751, -0.085178293287754059, -0.38700085878372192, -0.078952178359031677, 0.2423415333032608, -0.11855718493461609, 0.46960541605949402, -0.12573422491550446, 0.01318067405372858, -1.5366388559341431, -0.062636196613311768, 0.26079088449478149, -0.21781048178672791, -0.99801039695739746, 0.14742781221866608, -0.14360612630844116, -0.25941941142082214, -0.12290194630622864, -0.32498627901077271, 0.32132574915885925, -0.57789105176925659, -0.013270612806081772, 0.27322781085968018, 0.0097004510462284088, -0.29794421792030334, -0.055874310433864594, -0.28233563899993896, 0.28625914454460144, 0.36161667108535767, 0.23684123158454895, 0.12268982827663422, 0.23808561265468597, -1.6245710849761963, -0.50056749582290649, -0.039815895259380341, -0.44834122061729431, -0.2344510555267334, 0.48411270976066589, -0.0042605213820934296, 0.14991289377212524, -0.29439800977706909, -0.46001499891281128, 0.37458896636962891, -0.1721932590007782, -0.16385373473167419, -0.1602170467376709, -0.064360029995441437, 0.013414160348474979, 0.39309841394424438, -1.0114872455596924, 0.3134416937828064, -0.39384773373603821, -0.10208936035633087, -0.055629197508096695, -0.046614684164524078, -0.052618920803070068, -0.9489172101020813, 0.30863344669342041, 0.15605707466602325, 0.71337217092514038, 0.050186779350042343, 0.16327843070030212, -0.21693263947963715, 
  -0.035448901355266571, -0.14706410467624664, -0.22939039766788483, -0.059093233197927475, -0.23786456882953644, -0.4535597562789917, -0.36716797947883606, 0.039784438908100128, -1.1122859716415405, -0.17442207038402557, -0.10299967229366302, 0.12350285798311234, -0.19223737716674805, -0.044270262122154236, 0.066359035670757294, -0.039565686136484146, -0.084617502987384796, 0.093119680881500244, -0.17674833536148071, 0.21923597157001495, -0.18016830086708069, 0.013075211085379124, -0.50882977247238159, 0.05362468957901001, -0.11540407687425613, -0.32675713300704956, 0.0058775991201400757, -1.0180743932723999, 0.2090546190738678, 0.11079806089401245, 0.24333792924880981, -0.064720660448074341, -0.15739129483699799, -0.15548895299434662, 0.053230974823236465, -0.21597936749458313, 0.26838588714599609, -0.38776981830596924, -0.050503451377153397, 0.21754270792007446, 0.11310076713562012, 0.18228814005851746, 0.15513385832309723, 0.028983822092413902, -0.097242280840873718, -0.18597151339054108, 0.13400322198867798, -0.056158352643251419, -0.13550318777561188, -0.056971278041601181, 0.09114181250333786, -0.18470191955566406, 0.058717962354421616, -0.11225978285074234, -0.43031519651412964, 0.11994238197803497, -0.088727056980133057, 0.094550997018814087, 0.040947958827018738, -0.025188185274600983, -0.42266702651977539, -0.16009640693664551, 0.0026824504602700472, 0.20889097452163696, 0.09600578248500824, -0.0655965656042099, -0.23049215972423553, -0.30235108733177185, -0.17358458042144775, -0.067204594612121582, 0.11510462313890457, -0.13949239253997803, -0.1576174795627594, 0.12567698955535889, -0.027448145672678947, 0.16367937624454498, -0.071716152131557465, 0.02958359569311142, -0.060408178716897964, 0.10987632721662521, 0.05696767196059227, 0.33987569808959961, -0.054561182856559753, 0.30447572469711304, -0.20624972879886627, -0.048073276877403259, -0.062635712325572968, 0.01365920715034008, -0.34891417622566223, -0.03224988654255867, -0.066071636974811554, -0.35903984308242798, 0.069930046796798706, 0.069339185953140259, -0.86155605316162109, 0.13119402527809143, -0.053518135100603104, -0.41340696811676025, -0.55424016714096069, -0.16220879554748535, -0.42857861518859863, -0.13977976143360138, -0.12374167889356613, 0.039542637765407562, -0.35648778080940247, -0.0056328224018216133, -0.056652378290891647, -0.13724526762962341, 0.10041236132383347, 0.25581204891204834, -0.17738820612430573, -0.1573415994644165, -0.19935756921768188, 0.041346374899148941, 0.49417942762374878, 0.051898356527090073, -0.18973624706268311, -0.20788738131523132, -0.11188475787639618, -0.069143272936344147, 0.029747044667601585, -0.32118254899978638, 0.11340034753084183, 0.018440311774611473, -0.034919861704111099, -0.17368778586387634, -0.028227131813764572, -0.14768676459789276, 
  -0.12207441776990891, -0.0042151957750320435, -0.089458316564559937, 0.17727521061897278, -0.034901365637779236, -0.0057604429312050343, -0.035801529884338379, 0.093705683946609497, -0.11266055703163147, 0.17153558135032654, 0.10280351340770721, -0.11021433025598526, 0.10781297832727432, -0.044146642088890076, 0.056636020541191101, 0.056105051189661026, 0.11756718158721924, -0.014515317045152187, 0.045983731746673584, 0.12711808085441589, -0.08176916092634201, -0.049604594707489014, 0.037374004721641541, -0.1127699539065361, 0.071461334824562073, 0.02773750014603138, -0.14927679300308228, 0.14119251072406769, 0.067805513739585876, 0.12898750603199005, 0.13981746137142181, 0.09167046844959259, 0.051240220665931702, 0.22020985186100006, -0.16148070991039276, -0.098772503435611725, 0.096056707203388214, -0.047652672976255417, -0.087775394320487976, 0.033792462199926376, 0.12937870621681213, 0.005390828475356102, -0.15338368713855743, -0.04657180979847908, 0.0049986015073955059, 0.14080587029457092, -0.13774079084396362, -0.0049254391342401505, 0.039048813283443451, -0.093146555125713348, 0.024833688512444496, 0.02494530938565731, -0.080900669097900391, 0.062650166451931, 0.048957299441099167, -0.13293087482452393, 0.15885387361049652, -0.014184148050844669, -0.061952479183673859, -0.070777669548988342, -0.12596118450164795, 0.079980254173278809, 0.0034392268862575293, 0.10220956802368164, 0.062420476227998734, 0.20684672892093658, 0.17606493830680847, 0.17701071500778198, -0.096609547734260559, 0.00333009148016572, 0.1079733669757843, 0.041199095547199249, 0.0092220194637775421, 0.027994241565465927, 0.14726497232913971, 0.11962435394525528, 0.069296121597290039, 0.072052277624607086, 0.11971718817949295, 0.22369609773159027, 0.18749116361141205, 0.1498977392911911, 0.14185242354869843, -0.13325598835945129, 0.033823933452367783, -0.085793554782867432, 0.15029481053352356, 0.0061467746272683144, -0.029718035832047462, -0.031722679734230042, -0.068259559571743011, 0.073251500725746155, -0.063824564218521118, 0.058642525225877762, 0.061679355800151825, -0.055832721292972565, 0.0056840572506189346, 0.17529699206352234, -0.065728820860385895, 0.13064156472682953, -0.17407730221748352, 0.12126260995864868, 0.1804203987121582, 0.22588896751403809, -0.13519111275672913, -0.041535057127475739, 0.054779712110757828, 0.16534692049026489, 0.14948830008506775, -0.010081330314278603, -0.12134501338005066, -0.053284287452697754, 0.13523930311203003, 0.071070663630962372, 0.043716412037611008, 0.014503602869808674, -0.074653156101703644, 0.04698745533823967, 0.091326259076595306, 0.094470493495464325, 0.14037860929965973, -0.056865647435188293, 0.13129973411560059, -0.05779917910695076, 0.14229792356491089, 0.20262601971626282, 0.12848380208015442, 0.021321529522538185, 
  0.14820444583892822, -0.14189733564853668, 0.075118787586688995, -0.045972593128681183, -0.031156068667769432, -0.056632749736309052, -0.15127606689929962, -0.18219004571437836, 0.21213772892951965, 0.10582331568002701, 0.05028931051492691, 0.040368162095546722, 0.15329481661319733, -0.050221778452396393, 0.14315493404865265, 0.10666920989751816, -0.13681861758232117, -0.094058603048324585, 0.071289621293544769, -0.093212388455867767, -0.092983022332191467, -0.1678670197725296, -0.13258132338523865, 0.058935120701789856, -0.14503636956214905, 0.15997850894927979, 0.10255322605371475, 0.068589553236961365, -0.029151204973459244, 0.12172573804855347, 0.053186282515525818, 0.042023751884698868, -0.21699465811252594, 0.12723508477210999, 0.021108482033014297, 0.023450419306755066, -0.058228354901075363, -0.13302348554134369, 0.009273432195186615, -0.10393219441175461, -0.14829234778881073, 0.23979929089546204, 0.070111721754074097, 0.15790636837482452, 0.092035509645938873, -0.0083860494196414948, 0.14506691694259644, 0.17120324075222015, -0.16272185742855072, 0.082924246788024902, 0.031535711139440536, 0.10901200026273727, -0.072787880897521973, 0.049481660127639771, 0.097956553101539612, -0.04437551274895668, 0.17663036286830902, 0.15639121830463409, -0.0094746602699160576, -0.078403003513813019, -0.15925554931163788, -0.075559534132480621, 0.15094946324825287, 0.047735486179590225, 0.15538933873176575, -0.076157383620738983, -0.040067426860332489, -0.1604277491569519, -0.034908998757600784, -0.068272389471530914, 0.21284115314483643, -0.20355342328548431, -0.16788993775844574, -0.023760972544550896, 0.13500615954399109, 0.15530502796173096, -0.11527329683303833, -0.093283563852310181, -0.19722737371921539, -0.024883037433028221, 0.12721700966358185, -0.1492140144109726, 0.054711773991584778, -0.10326134413480759, -0.11569631844758987, 0.086817242205142975, -0.034933123737573624, 0.11279778182506561, -0.029406081885099411, 0.15325435996055603, -0.14212283492088318, 0.077246241271495819, -0.041238561272621155, -0.089839808642864227, 0.1010873094201088, 0.1686670184135437, 0.0028208468575030565, -0.089768990874290466, 0.016346946358680725, -0.12908335030078888, -0.11507756263017654, -0.091150224208831787, 0.14923466742038727, 0.14198721945285797, -0.022379430010914803, 0.090913876891136169, 0.058450665324926376, 0.019971754401922226, -0.0016199281672015786, 0.023170726373791695, -0.17599241435527802, -0.19353626668453217, 0.0096132606267929077, 0.088928461074829102, 0.15705303847789764, -0.1510080099105835, -0.18766321241855621, 0.015910962596535683, 0.1261303573846817, 0.11314533650875092, 0.14425913989543915, 0.011816727928817272, -0.13341252505779266, -0.11716832220554352, -0.014052636921405792, 0.04638989269733429, -0.06508694589138031, -0.10010106861591339, 
  -0.37313556671142578, -0.081820167601108551, 0.20914055407047272, 0.090921364724636078, 0.04805070161819458, 0.092677012085914612, -0.0036578050348907709, 0.071263059973716736, -0.20165762305259705, -0.10812012851238251, -0.20144712924957275, -0.025954162701964378, -0.19586740434169769, -0.30587044358253479, -0.25658079981803894, 0.046940632164478302, -0.12679272890090942, -0.2316925972700119, 0.090933799743652344, 0.019198708236217499, 0.043246578425168991, -0.21653181314468384, 0.16155481338500977, -0.086975380778312683, 0.11038456857204437, -0.049309704452753067, -0.37353500723838806, -0.28199175000190735, 0.15368342399597168, -0.1680726557970047, 0.13343571126461029, -0.07050430029630661, -0.23503430187702179, -0.073573872447013855, -0.062868468463420868, -0.52991014719009399, -0.23198066651821136, -0.12772201001644135, 0.090628288686275482, 0.1093134731054306, 0.088096119463443756, 0.1238589808344841, -0.18898560106754303, 0.015524212270975113, -0.078115314245223999, 0.063040025532245636, -0.19034013152122498, 0.098347678780555725, 0.041793957352638245, -0.19162939488887787, -0.29091411828994751, -0.16021451354026794, -0.21113535761833191, 0.15716634690761566, 0.30199265480041504, -0.018017623573541641, 0.042359810322523117, -0.12535615265369415, 0.043829146772623062, 0.071104809641838074, -0.0015767670702189207, -0.087969653308391571, 0.077656224370002747, 0.040088985115289688, -0.040855981409549713, 0.070929087698459625, -0.010086230002343655, 0.099868863821029663, -0.18829801678657532, -0.11644788831472397, -0.076537080109119415, -0.11177527159452438, -0.23403750360012054, -0.27085226774215698, 0.035994794219732285, -0.16116099059581757, 0.081987358629703522, 0.087823621928691864, -0.39497914910316467, -0.15383690595626831, 0.10073111951351166, -0.18322780728340149, 0.038277897983789444, -0.24080681800842285, 0.070295542478561401, -0.086892291903495789, 0.046929407864809036, -0.31338325142860413, 0.11096053570508957, -0.056753575801849365, 0.13501623272895813, -0.32489579916000366, 0.068618029356002808, 0.18008783459663391, -0.34099581837654114, -0.067195296287536621, -0.4395882785320282, -0.041391909122467041, 0.23085357248783112, -0.10971949249505997, -0.35273632407188416, 0.028469417244195938, -0.37565779685974121, -0.1617596298456192, 0.050920732319355011, -0.098000317811965942, -0.17673708498477936, -0.14588508009910583, -0.013834979385137558, -0.49112671613693237, -0.021382108330726624, -0.15727852284908295, 0.16984942555427551, 0.1667233407497406, -0.35082179307937622, -0.23993130028247833, 0.039565548300743103, -0.10186398774385452, 0.13125297427177429, 0.055068820714950562, 0.13460046052932739, 0.078383192420005798, -0.027609465643763542, 0.16680581867694855, -0.14772133529186249, 0.093656763434410095, -0.067740574479103088, -0.21917878091335297, 
  0.40664908289909363, -0.31433355808258057, -0.064393498003482819, 0.38926964998245239, -0.90544724464416504, -1.5741071701049805, -0.56431621313095093, 0.11209679394960403, 0.12301021069288254, 0.11083578318357468, 0.2762514054775238, -0.032362420111894608, -0.201761394739151, -0.64354324340820312, 0.22090166807174683, -0.58922970294952393, -0.13640813529491425, -1.5013583898544312, 0.096024133265018463, 0.3592604398727417, -0.097964227199554443, -1.5130599737167358, 0.40813258290290833, 0.55303269624710083, 0.24033014476299286, 0.3478725254535675, 0.37933483719825745, 0.15593817830085754, -0.045792531222105026, 0.33535352349281311, 0.024369830265641212, -0.37510517239570618, -0.29743808507919312, -0.11808447539806366, 0.18867234885692596, 0.43704903125762939, -0.1632382869720459, -0.39356562495231628, 0.41565972566604614, -0.067479498684406281, 0.17841045558452606, -0.2369420975446701, -0.22849343717098236, -0.035758979618549347, -0.16417726874351501, -0.14320795238018036, 0.16377893090248108, -0.079829774796962738, -0.0097747016698122025, 0.26068660616874695, -0.77987807989120483, 0.018689623102545738, -0.18290024995803833, 0.021225806325674057, 0.10181573033332825, 0.32805165648460388, -0.5124930739402771, -1.0095549821853638, 0.38166835904121399, 0.37232482433319092, 0.55879044532775879, -0.076919578015804291, 0.50569665431976318, 0.61917400360107422, 0.37877288460731506, -0.011377700604498386, -0.30756378173828125, -0.4198419451713562, -0.078616678714752197, 0.55511248111724854, -0.2759072482585907, 0.70775049924850464, -0.088919036090373993, -0.38765710592269897, -1.4765623807907104, 0.062965922057628632, 0.28430226445198059, -0.27377352118492126, -0.65317964553833008, 0.24274137616157532, -0.15788596868515015, -0.28694924712181091, -0.085598170757293701, -0.41865700483322144, 0.5550457239151001, -0.64919388294219971, -0.0026862563099712133, 0.15099182724952698, 0.044576194137334824, -1.0214512348175049, 0.056941214948892593, -0.20977801084518433, 0.34205621480941772, 0.43329957127571106, 0.23611347377300262, 0.13884648680686951, -0.088388964533805847, -1.2690142393112183, -0.70130789279937744, -0.11375813186168671, -0.39354234933853149, -0.28718787431716919, 0.60939693450927734, 0.048525247722864151, -0.13315914571285248, -0.27595755457878113, -0.79828363656997681, 0.75413376092910767, -0.27174392342567444, -0.34093755483627319, -0.14060333371162415, 0.032906338572502136, -0.12562672793865204, 0.38971418142318726, -1.0929605960845947, 0.49859076738357544, -0.3427179753780365, 0.16564737260341644, 0.31743034720420837, 0.05916808545589447, -0.1232769563794136, -0.91793984174728394, 0.22786860167980194, 0.55904495716094971, 0.38165250420570374, -0.021266749128699303, 0.17963847517967224, -0.49705520272254944, 
  0.05742206797003746, -0.031773455440998077, -0.0057236775755882263, 0.054026778787374496, 0.057603072375059128, -0.069255881011486053, -0.04235631600022316, -0.11134868115186691, -0.0031065270304679871, 0.099557586014270782, -0.058402169495820999, 0.025838993489742279, -0.094599269330501556, 0.1349128782749176, 0.041180983185768127, -0.14781013131141663, 0.070440210402011871, 0.15598534047603607, 0.056498192250728607, -0.12387367337942123, -0.011824703775346279, 0.013797852210700512, -0.011120361275970936, 0.092077054083347321, 0.14169362187385559, 0.14484117925167084, 0.022110935300588608, 0.06656239926815033, 0.1847025454044342, 0.022295165807008743, 0.042283032089471817, 0.020226787775754929, 0.05690678209066391, 0.12326973676681519, 0.056163690984249115, 0.099171064794063568, 0.11332659423351288, -0.0086349677294492722, -0.069725915789604187, -0.023223236203193665, 0.027336351573467255, 0.10865325480699539, 0.095884852111339569, 0.12834419310092926, 0.067660555243492126, 0.1309753805398941, 0.066421814262866974, 0.20622846484184265, -0.092950940132141113, -0.018076622858643532, 0.17251391708850861, -0.10961785167455673, -0.090103015303611755, -0.045095372945070267, 0.078141927719116211, -0.016335774213075638, -0.13810558617115021, -0.065424554049968719, -0.14699973165988922, 0.0030045679304748774, -0.065604999661445618, -0.18831369280815125, 0.16551685333251953, -0.031082998961210251, 0.14923983812332153, 0.02437785267829895, -0.061048846691846848, 0.013925405219197273, 0.13278929889202118, 0.032138124108314514, 0.0034708541352301836, 0.03579750657081604, -0.01537755224853754, -0.040195640176534653, 0.03952491283416748, 0.15601572394371033, -0.16673107445240021, 0.14910069108009338, 0.038847625255584717, -0.069059491157531738, 0.095144458115100861, 0.010633124969899654, 0.19023747742176056, -0.021139319986104965, 0.10870502144098282, -0.09067893773317337, -0.017536081373691559, 0.083435006439685822, -0.21894791722297668, -0.17089517414569855, -0.17805105447769165, -0.018807122483849525, -0.10594170540571213, -0.017894238233566284, -0.083494648337364197, -0.044160094112157822, -0.047941453754901886, 0.12474354356527328, -0.0015926719643175602, -0.092769667506217957, -0.12095387279987335, 0.013655746355652809, 0.058482136577367783, 0.16175040602684021, -0.079233653843402863, 0.15783800184726715, 0.033252868801355362, 0.14430955052375793, -0.086670726537704468, 0.112160824239254, -0.017341062426567078, -0.05221933126449585, -0.11792256683111191, -0.14638237655162811, 0.011739866808056831, -0.15963976085186005, -0.11284437030553818, -0.14058364927768707, 0.14183986186981201, 0.039818517863750458, 0.064108841121196747, 0.08987157791852951, -0.053029242902994156, -0.12825149297714233, 0.18293249607086182, -0.086412340402603149, 0.14716008305549622, -0.17926426231861115, 
  -0.16705502569675446, 0.0086971009150147438, -0.15408636629581451, -0.053553778678178787, -0.14524507522583008, -0.079292170703411102, -0.036571290343999863, 0.042457059025764465, 0.14376719295978546, -0.063789136707782745, -0.035218719393014908, 0.098886720836162567, 0.1421726793050766, 0.21369467675685883, -0.18213711678981781, -0.0065093501470983028, 0.011300253681838512, -0.012889171950519085, 0.02333817258477211, 0.092308357357978821, 0.1037461906671524, 0.005338672548532486, -0.2696266770362854, -0.25751060247421265, 0.12118475884199142, 0.19819171726703644, 0.052207157015800476, 0.058543499559164047, 0.045335669070482254, -0.12370695173740387, 0.15635161101818085, 0.065948650240898132, -0.070809543132781982, -0.015218719840049744, 0.26118361949920654, -0.15515023469924927, -0.091332606971263885, -0.082661643624305725, -0.17705170810222626, -0.073983676731586456, 0.038007866591215134, -0.064875513315200806, 0.13534951210021973, -0.079018004238605499, 0.051718808710575104, 0.24060820043087006, -0.20086470246315002, -0.05124199390411377, 0.29750552773475647, -0.040432017296552658, 0.090561971068382263, 0.015925312414765358, -0.086152873933315277, 0.097213193774223328, -0.01895727775990963, -0.085163667798042297, -0.13200712203979492, -0.0260336734354496, 0.055857285857200623, -0.081406287848949432, 0.11386065930128098, 0.12586908042430878, -0.052993331104516983, 0.097496815025806427, -0.27142965793609619, 0.094077475368976593, 0.27148517966270447, 0.16368164122104645, -0.037918709218502045, -0.18645717203617096, -0.10722159594297409, -0.1105722188949585, 0.092443637549877167, -0.058049522340297699, 0.10774168372154236, -0.33425414562225342, -0.216366246342659, -0.10884077847003937, -0.017666252329945564, 0.071084097027778625, 0.22717736661434174, -0.073529466986656189, -0.14640641212463379, -0.014200557023286819, 0.16121414303779602, 0.082340970635414124, -0.068714350461959839, -0.054640449583530426, -0.010489284992218018, -0.061050847172737122, 0.013690710067749023, 0.1149391308426857, 0.1034877598285675, 0.019399665296077728, 0.089882239699363708, 0.050168909132480621, -0.01824880950152874, -0.13859474658966064, -0.12296048551797867, 0.29126578569412231, -0.20975339412689209, 0.003934329841285944, -0.18205693364143372, -0.073175199329853058, 0.038389775902032852, -0.0037681823596358299, 0.061443168669939041, -0.13273534178733826, -0.0239410400390625, 0.16377180814743042, -0.052536893635988235, 0.020024165511131287, -0.069590941071510315, -0.17207887768745422, -0.22285716235637665, -0.030915083363652229, -0.06346091628074646, -0.051149684935808182, -0.23874281346797943, -0.16812223196029663, 0.010235891677439213, -0.10363709926605225, 0.070929870009422302, 0.1632867306470871, -0.19245618581771851, -0.075636453926563263, -0.095934115350246429, -0.12919624149799347, 
  0.088826820254325867, -0.03789149597287178, -0.30498844385147095, 0.12752258777618408, 0.066603191196918488, -0.3986574113368988, -0.3438580334186554, 0.060602482408285141, -0.94829148054122925, -0.13552555441856384, -0.030941624194383621, -0.19732436537742615, -0.074641965329647064, 0.21035008132457733, 0.15660227835178375, -0.053204052150249481, -0.60516953468322754, -0.40057811141014099, 0.063826486468315125, -0.18051022291183472, -0.11931733787059784, -0.29762446880340576, -0.25870063900947571, -0.32175406813621521, -0.15798774361610413, -0.38790181279182434, 0.066470354795455933, -0.93571376800537109, -0.031443454325199127, -0.21391545236110687, 0.20149341225624084, -0.22597344219684601, -0.16520865261554718, -0.12004531174898148, -0.093975149095058441, -0.083473958075046539, -0.24792210757732391, -0.49712926149368286, 0.08030179888010025, -0.2073824554681778, 0.083259463310241699, 0.0071314414963126183, -0.12032976746559143, 0.15962366759777069, -0.051701981574296951, 0.13420321047306061, 0.24801824986934662, 0.027410784736275673, 0.036404944956302643, 0.25060731172561646, -0.11716268211603165, 0.11839280277490616, -0.19377772510051727, -0.012391714379191399, 0.019176123663783073, -0.070228829979896545, -0.086892008781433105, -0.37622871994972229, -0.021218322217464447, 0.028894079849123955, -0.30818703770637512, -0.1452188640832901, -0.062697671353816986, 0.010343950241804123, -0.22303581237792969, 0.09128909558057785, -0.085467450320720673, 0.16244485974311829, -0.095714196562767029, -0.21843387186527252, -0.12834338843822479, 0.045840464532375336, -0.37017366290092468, 0.13937743008136749, -0.18668016791343689, 0.38475716114044189, 0.069294512271881104, 0.10716520994901657, 0.027483366429805756, 0.0012588741956278682, 0.090081080794334412, -0.079226098954677582, 0.11447005718946457, -0.42213249206542969, -0.16265895962715149, -0.17323970794677734, 0.10620985925197601, 0.25807666778564453, -0.3484063446521759, -0.35265955328941345, -0.060785446316003799, 0.15070807933807373, -0.012552672997117043, -0.181650310754776, -0.74335414171218872, 0.107756108045578, 0.036595359444618225, 0.35553228855133057, 0.15428467094898224, 0.093968778848648071, -0.11019719392061234, -0.5960661768913269, -0.21256536245346069, 0.11075219511985779, -0.03267335519194603, 0.094919286668300629, -0.1013801097869873, -0.10450829565525055, 0.045769058167934418, 0.24247342348098755, 0.011003849096596241, 0.18850888311862946, 0.09638918936252594, -0.10884503275156021, -0.020630916580557823, 0.37741959095001221, -0.4359298050403595, -0.33457121253013611, -0.024640867486596107, -0.28629574179649353, -0.1546509712934494, 0.12067654728889465, 0.015608934685587883, -0.34320524334907532, 0.083801060914993286, -0.27282664179801941, -0.032061409205198288, 0.043042909353971481, 
  -0.052309188991785049, -0.059810619801282883, 0.15066108107566833, -0.18470782041549683, -0.035509426146745682, 0.12636412680149078, -0.3758176863193512, 0.013986552134156227, 0.15758579969406128, -0.026784447953104973, -0.050154682248830795, 0.12435100227594376, 0.038938805460929871, -0.071053296327590942, -0.032682996243238449, 0.15966992080211639, 0.1999552994966507, 0.0040529398247599602, 0.18701472878456116, -0.18245412409305573, -0.17395932972431183, 0.043210655450820923, 0.03462919220328331, -0.2526472806930542, -0.036620408296585083, -0.38552495837211609, -0.08754219114780426, 0.19171978533267975, -0.19305211305618286, -0.12967145442962646, -0.10841032117605209, 0.12687070667743683, -0.074573814868927002, 0.077656909823417664, 0.20358103513717651, 0.0595574751496315, -0.035534240305423737, 0.048833522945642471, 0.065175607800483704, -0.057471875101327896, -0.052378911525011063, -0.21478366851806641, 0.066841259598731995, -0.11729978024959564, 0.11725091189146042, -0.2692493200302124, 0.04300372302532196, 0.19827519357204437, 0.13448342680931091, 0.13045400381088257, -0.10747966170310974, -0.16692365705966949, 0.11742172390222549, -0.047447789460420609, -0.10208871960639954, -0.14156559109687805, -0.15958534181118011, -0.0066045196726918221, 0.086867928504943848, 0.11296834796667099, 0.052379734814167023, 0.011000867001712322, 0.056560967117547989, -0.14350216090679169, -0.036180805414915085, -0.015184964053332806, 0.028729230165481567, 0.11065797507762909, 0.13589614629745483, 0.3042377233505249, -0.027937941253185272, -0.065156638622283936, -0.20593133568763733, -0.12992763519287109, 0.20696677267551422, 0.050364382565021515, 0.080001026391983032, -0.17187078297138214, -0.25337806344032288, -0.014725713059306145, 0.094819158315658569, -0.020977761596441269, 0.16917258501052856, -0.14650832116603851, 0.10275372117757797, -0.027667293325066566, 0.10427862405776978, -0.078914694488048553, -0.11175879836082458, -0.057854779064655304, -0.0048451609909534454, 0.042697180062532425, 0.12735232710838318, -0.076471976935863495, -0.11075806617736816, -0.26281523704528809, -0.0023358666803687811, 0.050285063683986664, 0.16949757933616638, 0.021143581718206406, 0.017930416390299797, 0.18662828207015991, -0.0064440248534083366, 0.1137525662779808, 0.0023377665784209967, -0.16193768382072449, 0.046156022697687149, 0.040161587297916412, 0.11844323575496674, 0.014751166105270386, -0.012349341064691544, 0.13718996942043304, 0.22515775263309479, 0.14544595777988434, 0.02603239007294178, 0.032414034008979797, 0.15432530641555786, 0.06508222222328186, -0.049941033124923706, -0.30854383111000061, 0.19491079449653625, -0.1174979954957962, 0.20377489924430847, 0.062578208744525909, 0.18460395932197571, 0.23418202996253967, -0.0012592918938025832, -0.032487053424119949, 
  0.010016335174441338, -0.1462300717830658, 0.14179395139217377, -0.18023045361042023, -0.038500383496284485, 0.094879008829593658, -0.057473383843898773, 0.095679841935634613, -0.0072481180541217327, -0.1249464675784111, -0.11831053346395493, 0.12409546971321106, -0.015012926422059536, -0.0070494012907147408, 0.018531136214733124, 0.04097617045044899, -0.079272061586380005, -0.0037647753488272429, 0.10665283352136612, -0.15242442488670349, -0.017083242535591125, -0.073129668831825256, -0.047159925103187561, 0.04897867888212204, -0.095091231167316437, 0.073044449090957642, 0.073488220572471619, 0.16227677464485168, 0.11656749248504639, -0.10088097304105759, -0.092189863324165344, -0.14594922959804535, -0.038865827023983002, 0.013718675822019577, -0.13040196895599365, -0.13410831987857819, -0.08329889178276062, 0.009959634393453598, 0.136532261967659, 0.11415915936231613, -0.12601582705974579, -0.12413661181926727, 0.026536257937550545, -0.14754748344421387, -0.13962921500205994, 0.16663491725921631, 0.065923094749450684, -0.11267118155956268, 0.18029788136482239, 0.081812359392642975, -0.054640762507915497, -0.13310962915420532, -0.14267107844352722, -0.16513407230377197, 0.07138611376285553, 0.077159754931926727, 0.046447001397609711, 0.068798504769802094, -0.17214308679103851, 0.039437800645828247, 0.1336921751499176, 0.12646621465682983, 0.10833649337291718, -0.031822673976421356, 0.050531964749097824, -0.064573459327220917, 0.099903829395771027, 0.05769207701086998, 0.065261684358119965, -0.058702033013105392, 0.068482540547847748, -0.077443651854991913, 0.11886999011039734, -0.030696539208292961, 0.13654321432113647, -0.098326966166496277, 0.086820319294929504, 0.12867765128612518, -0.030622949823737144, -0.010487517341971397, 0.14815284311771393, -0.20705704391002655, 0.068510569632053375, -0.1120111420750618, -0.12409965693950653, 0.0092619387432932854, -0.02675224281847477, 0.045470088720321655, -0.20998971164226532, -0.15395574271678925, -0.080816775560379028, 0.023288646712899208, 0.064483977854251862, -0.14759916067123413, 0.080802887678146362, -0.043502055108547211, -0.08554646372795105, 0.13677197694778442, 0.071469195187091827, -0.08553633838891983, -0.070608153939247131, 0.10784871876239777, 0.11469213664531708, 0.15868654847145081, -0.11856833100318909, -0.051150023937225342, 0.023726554587483406, 0.096693754196166992, 0.11534538120031357, 0.12487225979566574, 0.10045035928487778, -0.022353067994117737, 0.15017241239547729, -0.025180529803037643, -0.13316766917705536, -0.13016918301582336, -0.022622132673859596, 0.059078268706798553, -0.04059131070971489, 0.075688153505325317, 0.0791001096367836, -0.060484465211629868, 0.043317925184965134, -0.14247934520244598, -0.052934728562831879, 0.0084810545668005943, 0.080472134053707123, -0.072880178689956665, 
  0.078743457794189453, -0.095506347715854645, 0.019283788278698921, -0.0021746153943240643, 0.33812421560287476, -0.039533097296953201, 0.17898507416248322, -0.18595278263092041, 0.13961198925971985, 0.13184371590614319, -0.19379593431949615, 0.0039287223480641842, 0.018475731834769249, -0.041429772973060608, -0.13327939808368683, 0.14759176969528198, 0.031912688165903091, -0.039578065276145935, -0.10191572457551956, 0.17238950729370117, 0.098215259611606598, -0.045826692134141922, -0.19274379312992096, 0.11740019172430038, 0.1474115252494812, -0.24713796377182007, 0.065845176577568054, 0.18433926999568939, 0.11770316958427429, -0.16889934241771698, -0.18459281325340271, -0.03492438793182373, -0.12436142563819885, 0.055413424968719482, 0.15823598206043243, 0.27933555841445923, 0.1092829555273056, -0.18226629495620728, -0.1801844984292984, 0.21991051733493805, -0.11537179350852966, -0.17175891995429993, 0.081683717668056488, 0.24845275282859802, -0.0086934147402644157, 0.14551648497581482, 0.18364535272121429, -0.057007838040590286, -0.20383848249912262, -0.0655074343085289, 0.21571050584316254, 0.24019326269626617, 0.17920686304569244, -0.1021525114774704, -0.1179911270737648, 0.13703063130378723, -0.038981754332780838, -0.028080090880393982, -0.14009064435958862, 0.019479015842080116, 0.071578800678253174, -0.11312097311019897, 0.024057965725660324, -0.060243405401706696, -0.21226279437541962, -0.078161820769309998, -0.085502468049526215, -0.01637905091047287, 0.073430448770523071, -0.23187649250030518, -0.055591937154531479, 0.061805922538042068, 0.040022917091846466, 0.063383549451828003, 0.018623724579811096, -0.1214713528752327, 0.039055943489074707, -0.035088978707790375, 0.20726567506790161, -0.10280793160200119, 0.14809469878673553, -0.030001271516084671, 0.031507581472396851, -0.15336957573890686, 0.044125109910964966, 0.11549397557973862, -0.26853284239768982, 0.081963285803794861, -0.23555503785610199, 0.17729958891868591, -0.14437393844127655, -0.12054763734340668, -0.15139852464199066, 0.060334045439958572, 0.15021614730358124, -0.21625566482543945, 0.18227280676364899, -0.0069257738068699837, -0.16661965847015381, 0.18515594303607941, -0.071354977786540985, 0.040376972407102585, 0.13929150998592377, 0.14289548993110657, 0.018759731203317642, 0.18724521994590759, 0.081337571144104004, 0.22060255706310272, 0.019024839624762535, -0.16680522263050079, 0.16525381803512573, -0.18637190759181976, -0.16108717024326324, 0.056320738047361374, -0.050921835005283356, -0.24192443490028381, -0.25973403453826904, 0.0052881571464240551, -0.066332705318927765, -0.01900816336274147, 0.18545344471931458, -0.32151508331298828, 0.095013916492462158, -0.060788899660110474, 0.15473923087120056, 0.097783692181110382, 0.21772439777851105, -0.089607931673526764, 
  0.09984482079744339, 0.043778203427791595, 0.034186981618404388, 0.018541371449828148, -0.035918977111577988, -0.19661541283130646, 0.036205850541591644, -0.0034757726825773716, 0.023695036768913269, -0.073101513087749481, 0.13592498004436493, 0.1361318975687027, -0.0070494674146175385, -0.0033006761223077774, 0.045377176254987717, -0.03506055474281311, 0.19839665293693542, -0.14335423707962036, -0.094804152846336365, -0.01325378380715847, 0.19434076547622681, 0.1051032766699791, -0.10482748597860336, 0.01065799780189991, -0.12819346785545349, 0.05229998379945755, 0.039062231779098511, -0.064527817070484161, 0.034140355885028839, 0.039514321833848953, -0.016997002065181732, 0.10691756755113602, 0.019912967458367348, 0.090082377195358276, -0.029922271147370338, -0.081197820603847504, 0.14791539311408997, -0.066096492111682892, 0.18366147577762604, 0.10018397867679596, 0.018012324348092079, -0.1535126268863678, 0.10819055140018463, -0.10365429520606995, -0.010377709753811359, -0.044299423694610596, 0.035241924226284027, -0.14400255680084229, 0.131546750664711, 0.14226780831813812, 0.10061662644147873, -0.043431449681520462, 0.14138765633106232, 0.014738025143742561, 0.12790161371231079, -0.12148694694042206, 0.13487476110458374, 0.18716046214103699, -0.14869828522205353, -0.190028116106987, 0.14888335764408112, -0.052837003022432327, 0.043912317603826523, 0.00075239659054204822, -0.029533784836530685, 0.14934416115283966, 0.042945396155118942, -0.15635494887828827, 0.010980386286973953, -0.0092927673831582069, -0.09873652458190918, 0.025244021788239479, 0.17408457398414612, 0.068900473415851593, 0.073350444436073303, -0.011391021311283112, 0.12363871932029724, -0.044985570013523102, -0.076210923492908478, 0.18331669270992279, 0.13907632231712341, 0.0073831258341670036, 0.007916375994682312, -0.036957565695047379, -0.03824784979224205, -0.075903937220573425, 0.16055795550346375, -0.17981851100921631, 0.018004134297370911, -0.044906821101903915, -0.048895563930273056, -0.041506014764308929, 0.098900429904460907, -0.041251476854085922, -0.045297864824533463, -0.0065806889906525612, 0.094676986336708069, -0.13618478178977966, -0.12259646505117416, 0.13142992556095123, -0.17159204185009003, -0.011677587404847145, 0.13995011150836945, 0.021046049892902374, 0.055264003574848175, -0.033237732946872711, -0.10770042985677719, -0.0051424698904156685, 0.10324933379888535, 0.13345710933208466, -0.11599644273519516, 0.024615257978439331, -0.10659125447273254, 0.013496627099812031, -0.078447207808494568, -0.021839931607246399, -0.14373251795768738, 0.04646717756986618, 0.091827079653739929, -0.15233376622200012, -0.14694130420684814, 0.17047774791717529, -0.18446049094200134, 0.1375090479850769, 0.01120908185839653, 0.052817430347204208, 0.049540556967258453, -0.032151635736227036, 
  0.084315590560436249, -0.0032280723098665476, 0.10648120939731598, 0.073638789355754852, 0.1588173508644104, -0.10468628257513046, 0.088787585496902466, -0.040905673056840897, 0.0012436900287866592, 0.025002587586641312, 0.14227753877639771, 0.20061928033828735, 0.14380379021167755, 0.20284336805343628, 0.10773104429244995, 0.024305291473865509, 0.086618661880493164, -0.030367141589522362, -0.053890824317932129, -0.14872831106185913, -0.09277547150850296, 0.052213001996278763, -0.015334184281527996, -0.049103435128927231, 0.063064537942409515, 0.16142091155052185, 0.12761126458644867, -0.16693843901157379, 0.1445501446723938, -0.09507463127374649, -0.069108173251152039, -0.014768939465284348, 0.012659276835620403, -0.079270407557487488, -0.045136276632547379, -0.038029633462429047, -0.088093765079975128, 0.16830384731292725, 0.036149978637695312, 0.19489480555057526, 0.17587044835090637, -0.0049379165284335613, -0.09910719096660614, 0.19034953415393829, 0.19683648645877838, 0.16481320559978485, 0.089652091264724731, -0.069017492234706879, 0.22806739807128906, 0.086774528026580811, 0.18526138365268707, -0.04455280676484108, -0.16555078327655792, -0.063968703150749207, -0.17259398102760315, -0.056952893733978271, 0.085830427706241608, 0.11116534471511841, -0.08774343878030777, 0.093941442668437958, -0.018744677305221558, -0.12124110013246536, -0.14989149570465088, 0.065127722918987274, 0.078648172318935394, 0.022905206307768822, -0.12985646724700928, -0.13809002935886383, 0.021065685898065567, -0.032032333314418793, 0.098497144877910614, 0.17881985008716583, -0.13495932519435883, 0.11735962331295013, 0.16721859574317932, -0.1045832484960556, 0.12718304991722107, 0.16556717455387115, 0.16306579113006592, 0.16158446669578552, 0.018206493929028511, -0.1371484249830246, 0.19818368554115295, -0.05090688169002533, 0.067018598318099976, -0.025908121839165688, 0.021094229072332382, -0.17057833075523376, 0.029103294014930725, 0.079977996647357941, -0.12008161842823029, -0.11409251391887665, -0.022116731852293015, 0.088404566049575806, 0.010399244725704193, 0.00830813217908144, -0.058812040835618973, 0.031328096985816956, 0.2258002907037735, -0.095548547804355621, 0.02355220727622509, 0.13274103403091431, 0.075634501874446869, 0.21602340042591095, 0.053096633404493332, 0.050049781799316406, -0.030142037197947502, -0.054900635033845901, -0.11885245889425278, 0.096248090267181396, -0.12428514659404755, -0.17493948340415955, 0.15086528658866882, 0.066200412809848785, 0.072292841970920563, -0.19086211919784546, -0.071133263409137726, 0.18323948979377747, 0.03546590730547905, 0.12032677233219147, 0.11997703462839127, 0.022308008745312691, -0.16925612092018127, 0.0084847230464220047, 0.10995598882436752, 0.07243211567401886, 0.16178041696548462, 0.01425680797547102, 
  0.1331389993429184, -0.14534008502960205, -0.10814338177442551, 0.15671606361865997, -0.54788446426391602, -0.21582189202308655, 0.01982208713889122, -0.13735423982143402, 0.0066657676361501217, 0.090272188186645508, 0.064850345253944397, -0.03870590403676033, -0.20743638277053833, -0.22270554304122925, -0.15526503324508667, -1.6535336971282959, -0.17334653437137604, -0.44380372762680054, 0.054161075502634048, -0.18016378581523895, -0.0035578173119574785, -0.069835968315601349, 0.078202977776527405, -0.0044529512524604797, -0.14592742919921875, 0.015939105302095413, 0.26898059248924255, 0.025468546897172928, -0.15096868574619293, 0.092598423361778259, 0.020308949053287506, 0.087463416159152985, 0.30242130160331726, -0.11486339569091797, -0.020994801074266434, 0.057662975043058395, 0.078156597912311554, -0.27839165925979614, -0.02541259303689003, -0.015052400529384613, 0.06010349839925766, 0.26509371399879456, -0.063509061932563782, -0.0064085358753800392, 0.16465465724468231, -0.14434441924095154, -0.10091862827539444, -0.72709542512893677, -0.074982360005378723, 0.07051733136177063, -0.15210270881652832, -0.23223841190338135, -0.25157263875007629, -0.10426230728626251, -0.16792339086532593, 0.026370039209723473, -0.17271842062473297, 0.015488604083657265, -0.16269467771053314, 0.075555272400379181, 0.0027246291283518076, 0.10141731053590775, 0.15536917746067047, 0.015539084561169147, 0.14028352499008179, 0.1489405483007431, 0.062666304409503937, -0.10635729879140854, 0.043287206441164017, -0.092769995331764221, 0.012777803465723991, 0.2421744167804718, -0.17019137740135193, 0.36298584938049316, 0.0019549764692783356, 0.13902775943279266, -0.16888147592544556, -0.067574009299278259, 0.048210993409156799, 0.13853326439857483, -0.23309463262557983, 0.052973102778196335, -0.2061382532119751, -0.02929353155195713, 0.11558303236961365, -0.34411764144897461, -0.078317485749721527, -0.05274677649140358, -0.13898357748985291, 0.37234494090080261, 0.1949574202299118, -0.38319224119186401, 0.050300553441047668, -0.1323196142911911, 0.048714000731706619, -0.02131241001188755, 0.27309137582778931, -0.36223986744880676, -0.054497882723808289, -0.14209389686584473, -0.062380563467741013, -0.062363374978303909, -0.016374640166759491, -0.10155744105577469, -0.2245824784040451, -0.053943626582622528, -0.12423281371593475, 0.13263784348964691, -0.30519455671310425, -0.12844140827655792, 0.26785337924957275, -0.074719302356243134, -0.19843889772891998, 0.055810984224081039, 0.24199274182319641, 0.24597017467021942, 0.034788519144058228, 0.0039507863111793995, -0.084532842040061951, -0.12791474163532257, -0.056452319025993347, -0.044826477766036987, -0.15571467578411102, 0.17447219789028168, 0.09934958815574646, 0.10057783126831055, -0.015191709622740746, -0.35000672936439514, 
  0.074993148446083069, -0.025457326322793961, 0.062974661588668823, -0.081632398068904877, 0.14827391505241394, 0.0065685296431183815, 0.14036330580711365, 0.072831295430660248, 0.20007850229740143, 0.045400198549032211, -0.11531712859869003, 0.098491117358207703, 0.14789864420890808, 0.21334642171859741, 0.19785469770431519, 0.077159643173217773, -0.056067202240228653, -0.12074176967144012, -0.068500086665153503, 0.13706448674201965, 0.22870022058486938, -0.11778809130191803, 0.002384125255048275, -0.091164961457252502, 0.22410613298416138, 0.078754544258117676, -0.11914391070604324, 0.034398127347230911, 0.059857413172721863, 0.21458467841148376, -0.040395010262727737, 0.0078679909929633141, -0.059143539518117905, -0.034480258822441101, 0.13422425091266632, 0.1115800216794014, 0.010110601782798767, 0.09225742518901825, 0.0085438061505556107, 0.21723078191280365, -0.06837887316942215, 0.15442433953285217, 0.14033186435699463, -0.083577483892440796, 0.052743323147296906, -0.12231313437223434, 0.076133407652378082, 0.23289400339126587, 0.1915556788444519, -0.12912453711032867, 0.19908718764781952, -0.068536929786205292, 0.055031768977642059, 0.086267493665218353, 0.019629882648587227, 0.053807958960533142, 0.10347776859998703, 0.13200178742408752, -0.12340041995048523, 0.17056550085544586, -0.0071773724630475044, -0.059718869626522064, -0.025676131248474121, 0.094805262982845306, 0.0072164749726653099, 0.10229972004890442, -0.05301230400800705, 0.14274603128433228, 0.16730055212974548, 0.15618643164634705, 0.0097216768190264702, 0.10515530407428741, -0.061666976660490036, 0.16596561670303345, 0.022133041173219681, 0.13381168246269226, -0.10903912037611008, 0.025428527966141701, 0.20311923325061798, -0.080049261450767517, -0.032245434820652008, -0.10197232663631439, 0.19049665331840515, 0.11793549358844757, -0.095809668302536011, 0.12002424895763397, 0.12746948003768921, 0.025297043845057487, 0.10341013222932816, 0.069666579365730286, -0.14666290581226349, -0.015035618096590042, 0.19842082262039185, 0.24341130256652832, -0.026287926360964775, -0.087364561855792999, 0.10601594299077988, 0.084451198577880859, 0.19380302727222443, -0.016103737056255341, -0.14691416919231415, -0.010145146399736404, -0.018331579864025116, -0.08316396176815033, 0.037901882082223892, 0.0088961813598871231, 0.22747749090194702, 0.065834999084472656, 0.12854579091072083, 0.18250410258769989, 0.19330193102359772, 0.026349423453211784, -0.092482462525367737, 0.037817720323801041, -0.083168938755989075, 0.025105984881520271, 0.1622164398431778, 0.13055074214935303, 0.19741886854171753, -0.0072457902133464813, 0.16082771122455597, 0.21144649386405945, -0.12116394937038422, -0.1176714301109314, 0.10340142250061035, 0.0064046992920339108, 0.062666229903697968, -0.106381855905056, 
  -0.12787865102291107, -0.069917753338813782, -0.11977095901966095, -0.052295118570327759, 0.050145514309406281, -0.03580150380730629, -0.34163680672645569, -0.12120076268911362, -0.087596669793128967, 0.10897576063871384, 0.098522737622261047, -0.078574702143669128, 0.041337516158819199, -0.061298780143260956, -0.049282621592283249, -0.38759696483612061, -0.035651322454214096, 0.10223069041967392, 0.13913041353225708, -0.23244285583496094, -0.12986844778060913, 0.16600286960601807, -0.1624455600976944, 0.013213880360126495, 0.056118838489055634, 0.1072840541601181, -0.12731155753135681, 0.020194409415125847, -0.034502599388360977, -0.09245213121175766, -0.15121890604496002, -0.131363645195961, 0.06961822509765625, 0.0073612523265182972, -0.066175356507301331, 0.15464477241039276, -0.10888928920030594, 0.068109825253486633, -0.11893055588006973, -0.089799486100673676, -0.10985729843378067, -0.2805962860584259, 0.098570205271244049, -0.029809646308422089, 0.067748822271823883, 0.029246427118778229, 0.11717516183853149, 0.094078049063682556, -0.10241840779781342, 0.09785238653421402, 0.17241230607032776, -0.17191453278064728, 0.064604006707668304, -0.045984234660863876, -0.070115983486175537, 0.16958644986152649, -0.1624855250120163, -0.0351741723716259, -0.086951009929180145, -0.15415178239345551, -0.27242991328239441, -0.042262379080057144, -0.19922022521495819, 0.18535155057907104, -0.074477747082710266, 0.11845359206199646, 0.11845884472131729, 0.028003707528114319, 0.15479201078414917, -0.058802634477615356, -0.045969434082508087, -0.12917250394821167, 0.11318740993738174, -0.030153714120388031, -0.14697040617465973, -0.26183682680130005, -0.11142173409461975, 0.094005212187767029, -0.10310596227645874, 0.023169815540313721, -0.024271493777632713, -0.34970277547836304, -0.046690855175256729, -0.29764911532402039, 0.018818233162164688, -0.04214993491768837, 0.16961973905563354, 0.02910132147371769, -0.22589991986751556, 0.0851287841796875, -0.39507922530174255, 0.10863835364580154, 0.06640952080488205, -0.011852962896227837, -0.1180543377995491, -0.094477266073226929, -0.23847384750843048, 0.030526919290423393, -0.20090650022029877, 0.019550744444131851, -0.26834410429000854, -0.11223035305738449, -0.11956994980573654, 0.0014448062283918262, -0.24931551516056061, 0.034043077379465103, -0.065203182399272919, 0.022193271666765213, -0.23880882561206818, 0.010428154841065407, -0.14391091465950012, -0.16769757866859436, 0.00089393934467807412, -0.22916430234909058, -0.10439103841781616, -0.24469944834709167, -0.27478531002998352, 0.074379310011863708, -0.10771528631448746, -0.09165586531162262, -0.17149361968040466, -0.13453051447868347, -0.15979091823101044, -0.052527431398630142, -0.019795676693320274, -0.13658256828784943, 0.12146835029125214, -0.20952962338924408, 
  -0.093730024993419647, -0.16993802785873413, 0.0088232271373271942, 0.071451187133789062, 0.1535029262304306, 0.081401325762271881, -0.15544967353343964, 0.039211183786392212, 0.18035611510276794, 0.13837605714797974, -0.10058470070362091, -0.02348911389708519, -0.062076259404420853, -0.0096708238124847412, 0.0084267761558294296, -0.2119106650352478, 0.13880376517772675, -0.076958410441875458, -0.11815385520458221, 0.074303001165390015, 0.17050617933273315, -0.1582731306552887, -0.080167189240455627, -0.018529452383518219, -0.10790228843688965, 0.16504469513893127, 0.080579511821269989, -0.065467588603496552, -0.14599862694740295, 0.028068777173757553, -0.0036270564887672663, 0.10314610600471497, 0.0093174511566758156, 0.147102952003479, -0.10654650628566742, 0.14651429653167725, -0.14806020259857178, 0.10605397820472717, -0.016892258077859879, 0.13547323644161224, -0.018602015450596809, -0.043481055647134781, -0.088453158736228943, 0.02410026453435421, -0.013722874224185944, 0.044270236045122147, 0.058161713182926178, -0.14148220419883728, -0.11496353894472122, -0.060072991997003555, -0.058039207011461258, 0.18391859531402588, 0.067074812948703766, -0.15598145127296448, -0.094423621892929077, 0.052201122045516968, -0.0022562933154404163, -0.14524079859256744, -0.076956674456596375, -0.10348691046237946, 0.081586167216300964, -0.03018871508538723, 0.059865884482860565, 0.10423252731561661, 0.11007926613092422, -0.13222378492355347, 0.03886161744594574, -0.12039466202259064, -0.10296826064586639, 0.16263478994369507, 0.023364219814538956, 0.11266811937093735, -0.12114191055297852, -0.20133119821548462, -0.094774588942527771, 0.078594624996185303, -0.13258835673332214, 0.10581371933221817, -0.027976388111710548, -0.10179947316646576, 0.16751527786254883, -0.071502722799777985, 0.072704695165157318, -0.10486023128032684, -0.056396394968032837, 0.039866674691438675, 0.12808206677436829, -0.17964553833007812, -0.22007881104946136, -0.13630488514900208, -0.15063612163066864, -0.070500686764717102, -0.062408510595560074, 0.039134692400693893, 0.11328323930501938, 0.14457985758781433, -0.064679503440856934, 0.071105964481830597, -0.1178920641541481, -0.12797297537326813, 0.11915932595729828, 0.086781367659568787, -0.22973252832889557, 0.10428003221750259, -0.016860982403159142, 0.060037769377231598, -0.073944076895713806, -0.067426674067974091, -0.0082486122846603394, 0.019271895289421082, 0.14132265746593475, 0.048706762492656708, -0.024319499731063843, -0.070457056164741516, 0.054163843393325806, -0.03981364518404007, -0.01280564721673727, 0.10082116723060608, 0.018195513635873795, 0.031399689614772797, 0.13434979319572449, -0.13682970404624939, 0.050426676869392395, 0.091800615191459656, -0.045336119830608368, -0.060970593243837357, 0.11344248056411743, -0.018184119835495949, 
